digraph Tree {
node [shape=box, style="filled", color="black", fontname="helvetica"] ;
edge [fontname="helvetica"] ;
0 [label="a24 <= 1.5\ngini = 0.496\nsamples = 2000\nvalue = [908, 1092]\nclass = woman", fillcolor="#deeefb"] ;
1 [label="wp00tbgs <= 0.586\ngini = 0.496\nsamples = 1248\nvalue = [678, 570]\nclass = man", fillcolor="#fbebdf"] ;
0 -> 1 [labeldistance=2.5, labelangle=45, headlabel="True"] ;
2 [label="a25 <= 0.5\ngini = 0.455\nsamples = 120\nvalue = [42, 78]\nclass = woman", fillcolor="#a4d2f3"] ;
1 -> 2 ;
3 [label="a29 <= 4.0\ngini = 0.444\nsamples = 36\nvalue = [24, 12]\nclass = man", fillcolor="#f2c09c"] ;
2 -> 3 ;
4 [label="birthyr <= 1947.5\ngini = 0.496\nsamples = 22\nvalue = [12, 10]\nclass = man", fillcolor="#fbeade"] ;
3 -> 4 ;
5 [label="birthyr <= 1927.0\ngini = 0.408\nsamples = 7\nvalue = [2, 5]\nclass = woman", fillcolor="#88c4ef"] ;
4 -> 5 ;
6 [label="a29 <= 1.0\ngini = 0.444\nsamples = 3\nvalue = [2, 1]\nclass = man", fillcolor="#f2c09c"] ;
5 -> 6 ;
7 [label="gini = 0.0\nsamples = 1\nvalue = [1, 0]\nclass = man", fillcolor="#e58139"] ;
6 -> 7 ;
8 [label="a29 <= 2.5\ngini = 0.5\nsamples = 2\nvalue = [1, 1]\nclass = man", fillcolor="#ffffff"] ;
6 -> 8 ;
9 [label="gini = 0.0\nsamples = 1\nvalue = [0, 1]\nclass = woman", fillcolor="#399de5"] ;
8 -> 9 ;
10 [label="gini = 0.0\nsamples = 1\nvalue = [1, 0]\nclass = man", fillcolor="#e58139"] ;
8 -> 10 ;
11 [label="gini = 0.0\nsamples = 4\nvalue = [0, 4]\nclass = woman", fillcolor="#399de5"] ;
5 -> 11 ;
12 [label="birthyr <= 1955.5\ngini = 0.444\nsamples = 15\nvalue = [10, 5]\nclass = man", fillcolor="#f2c09c"] ;
4 -> 12 ;
13 [label="a30 <= 4.5\ngini = 0.298\nsamples = 11\nvalue = [9, 2]\nclass = man", fillcolor="#eb9d65"] ;
12 -> 13 ;
14 [label="wp00tbgp <= 641.553\ngini = 0.18\nsamples = 10\nvalue = [9, 1]\nclass = man", fillcolor="#e88f4f"] ;
13 -> 14 ;
15 [label="gini = 0.0\nsamples = 8\nvalue = [8, 0]\nclass = man", fillcolor="#e58139"] ;
14 -> 15 ;
16 [label="wp00tbgp <= 649.754\ngini = 0.5\nsamples = 2\nvalue = [1, 1]\nclass = man", fillcolor="#ffffff"] ;
14 -> 16 ;
17 [label="gini = 0.0\nsamples = 1\nvalue = [0, 1]\nclass = woman", fillcolor="#399de5"] ;
16 -> 17 ;
18 [label="gini = 0.0\nsamples = 1\nvalue = [1, 0]\nclass = man", fillcolor="#e58139"] ;
16 -> 18 ;
19 [label="gini = 0.0\nsamples = 1\nvalue = [0, 1]\nclass = woman", fillcolor="#399de5"] ;
13 -> 19 ;
20 [label="a28 <= 1.5\ngini = 0.375\nsamples = 4\nvalue = [1, 3]\nclass = woman", fillcolor="#7bbeee"] ;
12 -> 20 ;
21 [label="gini = 0.0\nsamples = 3\nvalue = [0, 3]\nclass = woman", fillcolor="#399de5"] ;
20 -> 21 ;
22 [label="gini = 0.0\nsamples = 1\nvalue = [1, 0]\nclass = man", fillcolor="#e58139"] ;
20 -> 22 ;
23 [label="a26 <= 0.5\ngini = 0.245\nsamples = 14\nvalue = [12, 2]\nclass = man", fillcolor="#e9965a"] ;
3 -> 23 ;
24 [label="gini = 0.0\nsamples = 7\nvalue = [7, 0]\nclass = man", fillcolor="#e58139"] ;
23 -> 24 ;
25 [label="birthyr <= 1951.0\ngini = 0.408\nsamples = 7\nvalue = [5, 2]\nclass = man", fillcolor="#efb388"] ;
23 -> 25 ;
26 [label="wp00tbgp <= 643.87\ngini = 0.5\nsamples = 4\nvalue = [2, 2]\nclass = man", fillcolor="#ffffff"] ;
25 -> 26 ;
27 [label="birthyr <= 1945.0\ngini = 0.444\nsamples = 3\nvalue = [1, 2]\nclass = woman", fillcolor="#9ccef2"] ;
26 -> 27 ;
28 [label="gini = 0.0\nsamples = 1\nvalue = [1, 0]\nclass = man", fillcolor="#e58139"] ;
27 -> 28 ;
29 [label="gini = 0.0\nsamples = 2\nvalue = [0, 2]\nclass = woman", fillcolor="#399de5"] ;
27 -> 29 ;
30 [label="gini = 0.0\nsamples = 1\nvalue = [1, 0]\nclass = man", fillcolor="#e58139"] ;
26 -> 30 ;
31 [label="gini = 0.0\nsamples = 3\nvalue = [3, 0]\nclass = man", fillcolor="#e58139"] ;
25 -> 31 ;
32 [label="birthyr <= 1945.0\ngini = 0.337\nsamples = 84\nvalue = [18, 66]\nclass = woman", fillcolor="#6fb8ec"] ;
2 -> 32 ;
33 [label="a25 <= 2.0\ngini = 0.48\nsamples = 5\nvalue = [3, 2]\nclass = man", fillcolor="#f6d5bd"] ;
32 -> 33 ;
34 [label="gini = 0.0\nsamples = 2\nvalue = [0, 2]\nclass = woman", fillcolor="#399de5"] ;
33 -> 34 ;
35 [label="gini = 0.0\nsamples = 3\nvalue = [3, 0]\nclass = man", fillcolor="#e58139"] ;
33 -> 35 ;
36 [label="a29 <= 2.0\ngini = 0.308\nsamples = 79\nvalue = [15, 64]\nclass = woman", fillcolor="#67b4eb"] ;
32 -> 36 ;
37 [label="a30 <= 2.0\ngini = 0.444\nsamples = 24\nvalue = [8, 16]\nclass = woman", fillcolor="#9ccef2"] ;
36 -> 37 ;
38 [label="wp00tbgs <= 0.575\ngini = 0.305\nsamples = 16\nvalue = [3, 13]\nclass = woman", fillcolor="#67b4eb"] ;
37 -> 38 ;
39 [label="a19 <= 0.5\ngini = 0.153\nsamples = 12\nvalue = [1, 11]\nclass = woman", fillcolor="#4ba6e7"] ;
38 -> 39 ;
40 [label="gini = 0.0\nsamples = 9\nvalue = [0, 9]\nclass = woman", fillcolor="#399de5"] ;
39 -> 40 ;
41 [label="wp00tbgp <= 625.097\ngini = 0.444\nsamples = 3\nvalue = [1, 2]\nclass = woman", fillcolor="#9ccef2"] ;
39 -> 41 ;
42 [label="gini = 0.0\nsamples = 1\nvalue = [1, 0]\nclass = man", fillcolor="#e58139"] ;
41 -> 42 ;
43 [label="gini = 0.0\nsamples = 2\nvalue = [0, 2]\nclass = woman", fillcolor="#399de5"] ;
41 -> 43 ;
44 [label="birthyr <= 1954.5\ngini = 0.5\nsamples = 4\nvalue = [2, 2]\nclass = man", fillcolor="#ffffff"] ;
38 -> 44 ;
45 [label="gini = 0.0\nsamples = 2\nvalue = [2, 0]\nclass = man", fillcolor="#e58139"] ;
44 -> 45 ;
46 [label="gini = 0.0\nsamples = 2\nvalue = [0, 2]\nclass = woman", fillcolor="#399de5"] ;
44 -> 46 ;
47 [label="wp00tbgp <= 581.268\ngini = 0.469\nsamples = 8\nvalue = [5, 3]\nclass = man", fillcolor="#f5cdb0"] ;
37 -> 47 ;
48 [label="gini = 0.0\nsamples = 2\nvalue = [0, 2]\nclass = woman", fillcolor="#399de5"] ;
47 -> 48 ;
49 [label="wp00tbgs <= 0.548\ngini = 0.278\nsamples = 6\nvalue = [5, 1]\nclass = man", fillcolor="#ea9a61"] ;
47 -> 49 ;
50 [label="gini = 0.0\nsamples = 4\nvalue = [4, 0]\nclass = man", fillcolor="#e58139"] ;
49 -> 50 ;
51 [label="a20 <= 0.5\ngini = 0.5\nsamples = 2\nvalue = [1, 1]\nclass = man", fillcolor="#ffffff"] ;
49 -> 51 ;
52 [label="gini = 0.0\nsamples = 1\nvalue = [1, 0]\nclass = man", fillcolor="#e58139"] ;
51 -> 52 ;
53 [label="gini = 0.0\nsamples = 1\nvalue = [0, 1]\nclass = woman", fillcolor="#399de5"] ;
51 -> 53 ;
54 [label="a22 <= 0.5\ngini = 0.222\nsamples = 55\nvalue = [7, 48]\nclass = woman", fillcolor="#56abe9"] ;
36 -> 54 ;
55 [label="a25 <= 2.0\ngini = 0.386\nsamples = 23\nvalue = [6, 17]\nclass = woman", fillcolor="#7fc0ee"] ;
54 -> 55 ;
56 [label="wp00tbgp <= 609.85\ngini = 0.48\nsamples = 10\nvalue = [4, 6]\nclass = woman", fillcolor="#bddef6"] ;
55 -> 56 ;
57 [label="gini = 0.0\nsamples = 4\nvalue = [0, 4]\nclass = woman", fillcolor="#399de5"] ;
56 -> 57 ;
58 [label="a24 <= 0.5\ngini = 0.444\nsamples = 6\nvalue = [4, 2]\nclass = man", fillcolor="#f2c09c"] ;
56 -> 58 ;
59 [label="birthyr <= 1954.5\ngini = 0.444\nsamples = 3\nvalue = [1, 2]\nclass = woman", fillcolor="#9ccef2"] ;
58 -> 59 ;
60 [label="gini = 0.0\nsamples = 2\nvalue = [0, 2]\nclass = woman", fillcolor="#399de5"] ;
59 -> 60 ;
61 [label="gini = 0.0\nsamples = 1\nvalue = [1, 0]\nclass = man", fillcolor="#e58139"] ;
59 -> 61 ;
62 [label="gini = 0.0\nsamples = 3\nvalue = [3, 0]\nclass = man", fillcolor="#e58139"] ;
58 -> 62 ;
63 [label="wp00tbgp <= 625.114\ngini = 0.26\nsamples = 13\nvalue = [2, 11]\nclass = woman", fillcolor="#5dafea"] ;
55 -> 63 ;
64 [label="birthyr <= 1952.5\ngini = 0.48\nsamples = 5\nvalue = [2, 3]\nclass = woman", fillcolor="#bddef6"] ;
63 -> 64 ;
65 [label="gini = 0.0\nsamples = 3\nvalue = [0, 3]\nclass = woman", fillcolor="#399de5"] ;
64 -> 65 ;
66 [label="gini = 0.0\nsamples = 2\nvalue = [2, 0]\nclass = man", fillcolor="#e58139"] ;
64 -> 66 ;
67 [label="gini = 0.0\nsamples = 8\nvalue = [0, 8]\nclass = woman", fillcolor="#399de5"] ;
63 -> 67 ;
68 [label="a28 <= 2.0\ngini = 0.061\nsamples = 32\nvalue = [1, 31]\nclass = woman", fillcolor="#3fa0e6"] ;
54 -> 68 ;
69 [label="birthyr <= 1952.0\ngini = 0.32\nsamples = 5\nvalue = [1, 4]\nclass = woman", fillcolor="#6ab6ec"] ;
68 -> 69 ;
70 [label="a19 <= 0.5\ngini = 0.5\nsamples = 2\nvalue = [1, 1]\nclass = man", fillcolor="#ffffff"] ;
69 -> 70 ;
71 [label="gini = 0.0\nsamples = 1\nvalue = [1, 0]\nclass = man", fillcolor="#e58139"] ;
70 -> 71 ;
72 [label="gini = 0.0\nsamples = 1\nvalue = [0, 1]\nclass = woman", fillcolor="#399de5"] ;
70 -> 72 ;
73 [label="gini = 0.0\nsamples = 3\nvalue = [0, 3]\nclass = woman", fillcolor="#399de5"] ;
69 -> 73 ;
74 [label="gini = 0.0\nsamples = 27\nvalue = [0, 27]\nclass = woman", fillcolor="#399de5"] ;
68 -> 74 ;
75 [label="wp00tbgs <= 0.845\ngini = 0.492\nsamples = 1128\nvalue = [636, 492]\nclass = man", fillcolor="#f9e2d2"] ;
1 -> 75 ;
76 [label="birthyr <= 1945.5\ngini = 0.445\nsamples = 463\nvalue = [308, 155]\nclass = man", fillcolor="#f2c09d"] ;
75 -> 76 ;
77 [label="wp00tbgs <= 0.767\ngini = 0.232\nsamples = 172\nvalue = [149, 23]\nclass = man", fillcolor="#e99458"] ;
76 -> 77 ;
78 [label="birthyr <= 1940.5\ngini = 0.07\nsamples = 83\nvalue = [80, 3]\nclass = man", fillcolor="#e68640"] ;
77 -> 78 ;
79 [label="birthyr <= 1926.5\ngini = 0.03\nsamples = 65\nvalue = [64, 1]\nclass = man", fillcolor="#e5833c"] ;
78 -> 79 ;
80 [label="a28 <= 4.0\ngini = 0.165\nsamples = 11\nvalue = [10, 1]\nclass = man", fillcolor="#e88e4d"] ;
79 -> 80 ;
81 [label="gini = 0.0\nsamples = 9\nvalue = [9, 0]\nclass = man", fillcolor="#e58139"] ;
80 -> 81 ;
82 [label="a20 <= 0.5\ngini = 0.5\nsamples = 2\nvalue = [1, 1]\nclass = man", fillcolor="#ffffff"] ;
80 -> 82 ;
83 [label="gini = 0.0\nsamples = 1\nvalue = [0, 1]\nclass = woman", fillcolor="#399de5"] ;
82 -> 83 ;
84 [label="gini = 0.0\nsamples = 1\nvalue = [1, 0]\nclass = man", fillcolor="#e58139"] ;
82 -> 84 ;
85 [label="gini = 0.0\nsamples = 54\nvalue = [54, 0]\nclass = man", fillcolor="#e58139"] ;
79 -> 85 ;
86 [label="a25 <= 0.5\ngini = 0.198\nsamples = 18\nvalue = [16, 2]\nclass = man", fillcolor="#e89152"] ;
78 -> 86 ;
87 [label="gini = 0.0\nsamples = 8\nvalue = [8, 0]\nclass = man", fillcolor="#e58139"] ;
86 -> 87 ;
88 [label="a28 <= 4.5\ngini = 0.32\nsamples = 10\nvalue = [8, 2]\nclass = man", fillcolor="#eca06a"] ;
86 -> 88 ;
89 [label="a29 <= 1.5\ngini = 0.444\nsamples = 6\nvalue = [4, 2]\nclass = man", fillcolor="#f2c09c"] ;
88 -> 89 ;
90 [label="gini = 0.0\nsamples = 3\nvalue = [3, 0]\nclass = man", fillcolor="#e58139"] ;
89 -> 90 ;
91 [label="wp00tbgp <= 853.889\ngini = 0.444\nsamples = 3\nvalue = [1, 2]\nclass = woman", fillcolor="#9ccef2"] ;
89 -> 91 ;
92 [label="gini = 0.0\nsamples = 2\nvalue = [0, 2]\nclass = woman", fillcolor="#399de5"] ;
91 -> 92 ;
93 [label="gini = 0.0\nsamples = 1\nvalue = [1, 0]\nclass = man", fillcolor="#e58139"] ;
91 -> 93 ;
94 [label="gini = 0.0\nsamples = 4\nvalue = [4, 0]\nclass = man", fillcolor="#e58139"] ;
88 -> 94 ;
95 [label="wp00tbgp <= 869.218\ngini = 0.348\nsamples = 89\nvalue = [69, 20]\nclass = man", fillcolor="#eda672"] ;
77 -> 95 ;
96 [label="gini = 0.0\nsamples = 3\nvalue = [0, 3]\nclass = woman", fillcolor="#399de5"] ;
95 -> 96 ;
97 [label="a25 <= 4.5\ngini = 0.317\nsamples = 86\nvalue = [69, 17]\nclass = man", fillcolor="#eba06a"] ;
95 -> 97 ;
98 [label="birthyr <= 1929.5\ngini = 0.269\nsamples = 81\nvalue = [68, 13]\nclass = man", fillcolor="#ea995f"] ;
97 -> 98 ;
99 [label="a28 <= 4.5\ngini = 0.457\nsamples = 17\nvalue = [11, 6]\nclass = man", fillcolor="#f3c6a5"] ;
98 -> 99 ;
100 [label="a19 <= 0.5\ngini = 0.391\nsamples = 15\nvalue = [11, 4]\nclass = man", fillcolor="#eeaf81"] ;
99 -> 100 ;
101 [label="a27 <= 2.0\ngini = 0.337\nsamples = 14\nvalue = [11, 3]\nclass = man", fillcolor="#eca36f"] ;
100 -> 101 ;
102 [label="wp00tbgs <= 0.835\ngini = 0.278\nsamples = 12\nvalue = [10, 2]\nclass = man", fillcolor="#ea9a61"] ;
101 -> 102 ;
103 [label="wp00tbgp <= 919.888\ngini = 0.165\nsamples = 11\nvalue = [10, 1]\nclass = man", fillcolor="#e88e4d"] ;
102 -> 103 ;
104 [label="gini = 0.0\nsamples = 6\nvalue = [6, 0]\nclass = man", fillcolor="#e58139"] ;
103 -> 104 ;
105 [label="wp00tbgp <= 920.923\ngini = 0.32\nsamples = 5\nvalue = [4, 1]\nclass = man", fillcolor="#eca06a"] ;
103 -> 105 ;
106 [label="gini = 0.0\nsamples = 1\nvalue = [0, 1]\nclass = woman", fillcolor="#399de5"] ;
105 -> 106 ;
107 [label="gini = 0.0\nsamples = 4\nvalue = [4, 0]\nclass = man", fillcolor="#e58139"] ;
105 -> 107 ;
108 [label="gini = 0.0\nsamples = 1\nvalue = [0, 1]\nclass = woman", fillcolor="#399de5"] ;
102 -> 108 ;
109 [label="a21 <= 0.5\ngini = 0.5\nsamples = 2\nvalue = [1, 1]\nclass = man", fillcolor="#ffffff"] ;
101 -> 109 ;
110 [label="gini = 0.0\nsamples = 1\nvalue = [0, 1]\nclass = woman", fillcolor="#399de5"] ;
109 -> 110 ;
111 [label="gini = 0.0\nsamples = 1\nvalue = [1, 0]\nclass = man", fillcolor="#e58139"] ;
109 -> 111 ;
112 [label="gini = 0.0\nsamples = 1\nvalue = [0, 1]\nclass = woman", fillcolor="#399de5"] ;
100 -> 112 ;
113 [label="gini = 0.0\nsamples = 2\nvalue = [0, 2]\nclass = woman", fillcolor="#399de5"] ;
99 -> 113 ;
114 [label="a30 <= 1.5\ngini = 0.195\nsamples = 64\nvalue = [57, 7]\nclass = man", fillcolor="#e89051"] ;
98 -> 114 ;
115 [label="a20 <= 0.5\ngini = 0.375\nsamples = 16\nvalue = [12, 4]\nclass = man", fillcolor="#eeab7b"] ;
114 -> 115 ;
116 [label="wp00tbgs <= 0.788\ngini = 0.245\nsamples = 14\nvalue = [12, 2]\nclass = man", fillcolor="#e9965a"] ;
115 -> 116 ;
117 [label="wp00tbgs <= 0.779\ngini = 0.5\nsamples = 2\nvalue = [1, 1]\nclass = man", fillcolor="#ffffff"] ;
116 -> 117 ;
118 [label="gini = 0.0\nsamples = 1\nvalue = [1, 0]\nclass = man", fillcolor="#e58139"] ;
117 -> 118 ;
119 [label="gini = 0.0\nsamples = 1\nvalue = [0, 1]\nclass = woman", fillcolor="#399de5"] ;
117 -> 119 ;
120 [label="birthyr <= 1942.0\ngini = 0.153\nsamples = 12\nvalue = [11, 1]\nclass = man", fillcolor="#e78c4b"] ;
116 -> 120 ;
121 [label="gini = 0.0\nsamples = 8\nvalue = [8, 0]\nclass = man", fillcolor="#e58139"] ;
120 -> 121 ;
122 [label="wp00tbgs <= 0.818\ngini = 0.375\nsamples = 4\nvalue = [3, 1]\nclass = man", fillcolor="#eeab7b"] ;
120 -> 122 ;
123 [label="gini = 0.0\nsamples = 1\nvalue = [0, 1]\nclass = woman", fillcolor="#399de5"] ;
122 -> 123 ;
124 [label="gini = 0.0\nsamples = 3\nvalue = [3, 0]\nclass = man", fillcolor="#e58139"] ;
122 -> 124 ;
125 [label="gini = 0.0\nsamples = 2\nvalue = [0, 2]\nclass = woman", fillcolor="#399de5"] ;
115 -> 125 ;
126 [label="a26 <= 2.5\ngini = 0.117\nsamples = 48\nvalue = [45, 3]\nclass = man", fillcolor="#e78946"] ;
114 -> 126 ;
127 [label="gini = 0.0\nsamples = 32\nvalue = [32, 0]\nclass = man", fillcolor="#e58139"] ;
126 -> 127 ;
128 [label="wp00tbgs <= 0.801\ngini = 0.305\nsamples = 16\nvalue = [13, 3]\nclass = man", fillcolor="#eb9e67"] ;
126 -> 128 ;
129 [label="gini = 0.0\nsamples = 8\nvalue = [8, 0]\nclass = man", fillcolor="#e58139"] ;
128 -> 129 ;
130 [label="a30 <= 4.5\ngini = 0.469\nsamples = 8\nvalue = [5, 3]\nclass = man", fillcolor="#f5cdb0"] ;
128 -> 130 ;
131 [label="gini = 0.0\nsamples = 2\nvalue = [0, 2]\nclass = woman", fillcolor="#399de5"] ;
130 -> 131 ;
132 [label="wp00tbgs <= 0.805\ngini = 0.278\nsamples = 6\nvalue = [5, 1]\nclass = man", fillcolor="#ea9a61"] ;
130 -> 132 ;
133 [label="gini = 0.0\nsamples = 1\nvalue = [0, 1]\nclass = woman", fillcolor="#399de5"] ;
132 -> 133 ;
134 [label="gini = 0.0\nsamples = 5\nvalue = [5, 0]\nclass = man", fillcolor="#e58139"] ;
132 -> 134 ;
135 [label="birthyr <= 1931.0\ngini = 0.32\nsamples = 5\nvalue = [1, 4]\nclass = woman", fillcolor="#6ab6ec"] ;
97 -> 135 ;
136 [label="gini = 0.0\nsamples = 1\nvalue = [1, 0]\nclass = man", fillcolor="#e58139"] ;
135 -> 136 ;
137 [label="gini = 0.0\nsamples = 4\nvalue = [0, 4]\nclass = woman", fillcolor="#399de5"] ;
135 -> 137 ;
138 [label="wp00tbgp <= 664.945\ngini = 0.496\nsamples = 291\nvalue = [159, 132]\nclass = man", fillcolor="#fbeadd"] ;
76 -> 138 ;
139 [label="gini = 0.0\nsamples = 8\nvalue = [8, 0]\nclass = man", fillcolor="#e58139"] ;
138 -> 139 ;
140 [label="a25 <= 1.5\ngini = 0.498\nsamples = 283\nvalue = [151, 132]\nclass = man", fillcolor="#fcefe6"] ;
138 -> 140 ;
141 [label="a30 <= 0.5\ngini = 0.492\nsamples = 236\nvalue = [133, 103]\nclass = man", fillcolor="#f9e3d2"] ;
140 -> 141 ;
142 [label="wp00tbgp <= 718.248\ngini = 0.432\nsamples = 19\nvalue = [6, 13]\nclass = woman", fillcolor="#94caf1"] ;
141 -> 142 ;
143 [label="gini = 0.0\nsamples = 4\nvalue = [0, 4]\nclass = woman", fillcolor="#399de5"] ;
142 -> 143 ;
144 [label="wp00tbgp <= 746.468\ngini = 0.48\nsamples = 15\nvalue = [6, 9]\nclass = woman", fillcolor="#bddef6"] ;
142 -> 144 ;
145 [label="gini = 0.0\nsamples = 2\nvalue = [2, 0]\nclass = man", fillcolor="#e58139"] ;
144 -> 145 ;
146 [label="birthyr <= 1953.5\ngini = 0.426\nsamples = 13\nvalue = [4, 9]\nclass = woman", fillcolor="#91c9f1"] ;
144 -> 146 ;
147 [label="wp00tbgs <= 0.674\ngini = 0.5\nsamples = 8\nvalue = [4, 4]\nclass = man", fillcolor="#ffffff"] ;
146 -> 147 ;
148 [label="gini = 0.0\nsamples = 2\nvalue = [0, 2]\nclass = woman", fillcolor="#399de5"] ;
147 -> 148 ;
149 [label="birthyr <= 1948.5\ngini = 0.444\nsamples = 6\nvalue = [4, 2]\nclass = man", fillcolor="#f2c09c"] ;
147 -> 149 ;
150 [label="gini = 0.0\nsamples = 1\nvalue = [0, 1]\nclass = woman", fillcolor="#399de5"] ;
149 -> 150 ;
151 [label="wp00tbgs <= 0.725\ngini = 0.32\nsamples = 5\nvalue = [4, 1]\nclass = man", fillcolor="#eca06a"] ;
149 -> 151 ;
152 [label="gini = 0.0\nsamples = 2\nvalue = [2, 0]\nclass = man", fillcolor="#e58139"] ;
151 -> 152 ;
153 [label="wp00tbgp <= 871.214\ngini = 0.444\nsamples = 3\nvalue = [2, 1]\nclass = man", fillcolor="#f2c09c"] ;
151 -> 153 ;
154 [label="gini = 0.0\nsamples = 1\nvalue = [0, 1]\nclass = woman", fillcolor="#399de5"] ;
153 -> 154 ;
155 [label="gini = 0.0\nsamples = 2\nvalue = [2, 0]\nclass = man", fillcolor="#e58139"] ;
153 -> 155 ;
156 [label="gini = 0.0\nsamples = 5\nvalue = [0, 5]\nclass = woman", fillcolor="#399de5"] ;
146 -> 156 ;
157 [label="a21 <= 0.5\ngini = 0.485\nsamples = 217\nvalue = [127, 90]\nclass = man", fillcolor="#f7dac5"] ;
141 -> 157 ;
158 [label="wp00tbgp <= 675.876\ngini = 0.441\nsamples = 116\nvalue = [78, 38]\nclass = man", fillcolor="#f2be99"] ;
157 -> 158 ;
159 [label="a25 <= 0.5\ngini = 0.42\nsamples = 10\nvalue = [3, 7]\nclass = woman", fillcolor="#8ec7f0"] ;
158 -> 159 ;
160 [label="gini = 0.0\nsamples = 3\nvalue = [3, 0]\nclass = man", fillcolor="#e58139"] ;
159 -> 160 ;
161 [label="gini = 0.0\nsamples = 7\nvalue = [0, 7]\nclass = woman", fillcolor="#399de5"] ;
159 -> 161 ;
162 [label="wp00tbgp <= 887.388\ngini = 0.414\nsamples = 106\nvalue = [75, 31]\nclass = man", fillcolor="#f0b58b"] ;
158 -> 162 ;
163 [label="wp00tbgs <= 0.731\ngini = 0.442\nsamples = 91\nvalue = [61, 30]\nclass = man", fillcolor="#f2bf9a"] ;
162 -> 163 ;
164 [label="wp00tbgp <= 727.904\ngini = 0.391\nsamples = 75\nvalue = [55, 20]\nclass = man", fillcolor="#eeaf81"] ;
163 -> 164 ;
165 [label="wp00tbgp <= 700.379\ngini = 0.48\nsamples = 25\nvalue = [15, 10]\nclass = man", fillcolor="#f6d5bd"] ;
164 -> 165 ;
166 [label="a27 <= 0.5\ngini = 0.278\nsamples = 12\nvalue = [10, 2]\nclass = man", fillcolor="#ea9a61"] ;
165 -> 166 ;
167 [label="birthyr <= 1954.0\ngini = 0.5\nsamples = 2\nvalue = [1, 1]\nclass = man", fillcolor="#ffffff"] ;
166 -> 167 ;
168 [label="gini = 0.0\nsamples = 1\nvalue = [1, 0]\nclass = man", fillcolor="#e58139"] ;
167 -> 168 ;
169 [label="gini = 0.0\nsamples = 1\nvalue = [0, 1]\nclass = woman", fillcolor="#399de5"] ;
167 -> 169 ;
170 [label="birthyr <= 1950.0\ngini = 0.18\nsamples = 10\nvalue = [9, 1]\nclass = man", fillcolor="#e88f4f"] ;
166 -> 170 ;
171 [label="a23 <= 0.5\ngini = 0.444\nsamples = 3\nvalue = [2, 1]\nclass = man", fillcolor="#f2c09c"] ;
170 -> 171 ;
172 [label="gini = 0.0\nsamples = 1\nvalue = [0, 1]\nclass = woman", fillcolor="#399de5"] ;
171 -> 172 ;
173 [label="gini = 0.0\nsamples = 2\nvalue = [2, 0]\nclass = man", fillcolor="#e58139"] ;
171 -> 173 ;
174 [label="gini = 0.0\nsamples = 7\nvalue = [7, 0]\nclass = man", fillcolor="#e58139"] ;
170 -> 174 ;
175 [label="birthyr <= 1946.5\ngini = 0.473\nsamples = 13\nvalue = [5, 8]\nclass = woman", fillcolor="#b5daf5"] ;
165 -> 175 ;
176 [label="gini = 0.0\nsamples = 2\nvalue = [2, 0]\nclass = man", fillcolor="#e58139"] ;
175 -> 176 ;
177 [label="birthyr <= 1954.5\ngini = 0.397\nsamples = 11\nvalue = [3, 8]\nclass = woman", fillcolor="#83c2ef"] ;
175 -> 177 ;
178 [label="a28 <= 4.0\ngini = 0.49\nsamples = 7\nvalue = [3, 4]\nclass = woman", fillcolor="#cee6f8"] ;
177 -> 178 ;
179 [label="a25 <= 0.5\ngini = 0.48\nsamples = 5\nvalue = [3, 2]\nclass = man", fillcolor="#f6d5bd"] ;
178 -> 179 ;
180 [label="a26 <= 2.0\ngini = 0.444\nsamples = 3\nvalue = [1, 2]\nclass = woman", fillcolor="#9ccef2"] ;
179 -> 180 ;
181 [label="gini = 0.0\nsamples = 2\nvalue = [0, 2]\nclass = woman", fillcolor="#399de5"] ;
180 -> 181 ;
182 [label="gini = 0.0\nsamples = 1\nvalue = [1, 0]\nclass = man", fillcolor="#e58139"] ;
180 -> 182 ;
183 [label="gini = 0.0\nsamples = 2\nvalue = [2, 0]\nclass = man", fillcolor="#e58139"] ;
179 -> 183 ;
184 [label="gini = 0.0\nsamples = 2\nvalue = [0, 2]\nclass = woman", fillcolor="#399de5"] ;
178 -> 184 ;
185 [label="gini = 0.0\nsamples = 4\nvalue = [0, 4]\nclass = woman", fillcolor="#399de5"] ;
177 -> 185 ;
186 [label="wp00tbgs <= 0.675\ngini = 0.32\nsamples = 50\nvalue = [40, 10]\nclass = man", fillcolor="#eca06a"] ;
164 -> 186 ;
187 [label="wp00tbgs <= 0.655\ngini = 0.1\nsamples = 19\nvalue = [18, 1]\nclass = man", fillcolor="#e68844"] ;
186 -> 187 ;
188 [label="wp00tbgp <= 733.63\ngini = 0.375\nsamples = 4\nvalue = [3, 1]\nclass = man", fillcolor="#eeab7b"] ;
187 -> 188 ;
189 [label="gini = 0.0\nsamples = 3\nvalue = [3, 0]\nclass = man", fillcolor="#e58139"] ;
188 -> 189 ;
190 [label="gini = 0.0\nsamples = 1\nvalue = [0, 1]\nclass = woman", fillcolor="#399de5"] ;
188 -> 190 ;
191 [label="gini = 0.0\nsamples = 15\nvalue = [15, 0]\nclass = man", fillcolor="#e58139"] ;
187 -> 191 ;
192 [label="wp00tbgp <= 792.191\ngini = 0.412\nsamples = 31\nvalue = [22, 9]\nclass = man", fillcolor="#f0b58a"] ;
186 -> 192 ;
193 [label="wp00tbgp <= 776.787\ngini = 0.498\nsamples = 17\nvalue = [9, 8]\nclass = man", fillcolor="#fcf1e9"] ;
192 -> 193 ;
194 [label="wp00tbgp <= 763.252\ngini = 0.444\nsamples = 12\nvalue = [8, 4]\nclass = man", fillcolor="#f2c09c"] ;
193 -> 194 ;
195 [label="gini = 0.0\nsamples = 1\nvalue = [0, 1]\nclass = woman", fillcolor="#399de5"] ;
194 -> 195 ;
196 [label="wp00tbgp <= 763.982\ngini = 0.397\nsamples = 11\nvalue = [8, 3]\nclass = man", fillcolor="#efb083"] ;
194 -> 196 ;
197 [label="gini = 0.0\nsamples = 2\nvalue = [2, 0]\nclass = man", fillcolor="#e58139"] ;
196 -> 197 ;
198 [label="wp00tbgp <= 764.561\ngini = 0.444\nsamples = 9\nvalue = [6, 3]\nclass = man", fillcolor="#f2c09c"] ;
196 -> 198 ;
199 [label="gini = 0.0\nsamples = 1\nvalue = [0, 1]\nclass = woman", fillcolor="#399de5"] ;
198 -> 199 ;
200 [label="wp00tbgp <= 767.789\ngini = 0.375\nsamples = 8\nvalue = [6, 2]\nclass = man", fillcolor="#eeab7b"] ;
198 -> 200 ;
201 [label="gini = 0.0\nsamples = 3\nvalue = [3, 0]\nclass = man", fillcolor="#e58139"] ;
200 -> 201 ;
202 [label="wp00tbgs <= 0.685\ngini = 0.48\nsamples = 5\nvalue = [3, 2]\nclass = man", fillcolor="#f6d5bd"] ;
200 -> 202 ;
203 [label="birthyr <= 1956.5\ngini = 0.444\nsamples = 3\nvalue = [1, 2]\nclass = woman", fillcolor="#9ccef2"] ;
202 -> 203 ;
204 [label="gini = 0.0\nsamples = 2\nvalue = [0, 2]\nclass = woman", fillcolor="#399de5"] ;
203 -> 204 ;
205 [label="gini = 0.0\nsamples = 1\nvalue = [1, 0]\nclass = man", fillcolor="#e58139"] ;
203 -> 205 ;
206 [label="gini = 0.0\nsamples = 2\nvalue = [2, 0]\nclass = man", fillcolor="#e58139"] ;
202 -> 206 ;
207 [label="birthyr <= 1947.5\ngini = 0.32\nsamples = 5\nvalue = [1, 4]\nclass = woman", fillcolor="#6ab6ec"] ;
193 -> 207 ;
208 [label="gini = 0.0\nsamples = 2\nvalue = [0, 2]\nclass = woman", fillcolor="#399de5"] ;
207 -> 208 ;
209 [label="wp00tbgs <= 0.696\ngini = 0.444\nsamples = 3\nvalue = [1, 2]\nclass = woman", fillcolor="#9ccef2"] ;
207 -> 209 ;
210 [label="gini = 0.0\nsamples = 2\nvalue = [0, 2]\nclass = woman", fillcolor="#399de5"] ;
209 -> 210 ;
211 [label="gini = 0.0\nsamples = 1\nvalue = [1, 0]\nclass = man", fillcolor="#e58139"] ;
209 -> 211 ;
212 [label="a22 <= 0.5\ngini = 0.133\nsamples = 14\nvalue = [13, 1]\nclass = man", fillcolor="#e78b48"] ;
192 -> 212 ;
213 [label="gini = 0.0\nsamples = 13\nvalue = [13, 0]\nclass = man", fillcolor="#e58139"] ;
212 -> 213 ;
214 [label="gini = 0.0\nsamples = 1\nvalue = [0, 1]\nclass = woman", fillcolor="#399de5"] ;
212 -> 214 ;
215 [label="wp00tbgp <= 850.355\ngini = 0.469\nsamples = 16\nvalue = [6, 10]\nclass = woman", fillcolor="#b0d8f5"] ;
163 -> 215 ;
216 [label="gini = 0.0\nsamples = 6\nvalue = [0, 6]\nclass = woman", fillcolor="#399de5"] ;
215 -> 216 ;
217 [label="wp00tbgs <= 0.781\ngini = 0.48\nsamples = 10\nvalue = [6, 4]\nclass = man", fillcolor="#f6d5bd"] ;
215 -> 217 ;
218 [label="a30 <= 4.5\ngini = 0.278\nsamples = 6\nvalue = [5, 1]\nclass = man", fillcolor="#ea9a61"] ;
217 -> 218 ;
219 [label="gini = 0.0\nsamples = 4\nvalue = [4, 0]\nclass = man", fillcolor="#e58139"] ;
218 -> 219 ;
220 [label="birthyr <= 1955.5\ngini = 0.5\nsamples = 2\nvalue = [1, 1]\nclass = man", fillcolor="#ffffff"] ;
218 -> 220 ;
221 [label="gini = 0.0\nsamples = 1\nvalue = [1, 0]\nclass = man", fillcolor="#e58139"] ;
220 -> 221 ;
222 [label="gini = 0.0\nsamples = 1\nvalue = [0, 1]\nclass = woman", fillcolor="#399de5"] ;
220 -> 222 ;
223 [label="a28 <= 4.5\ngini = 0.375\nsamples = 4\nvalue = [1, 3]\nclass = woman", fillcolor="#7bbeee"] ;
217 -> 223 ;
224 [label="gini = 0.0\nsamples = 3\nvalue = [0, 3]\nclass = woman", fillcolor="#399de5"] ;
223 -> 224 ;
225 [label="gini = 0.0\nsamples = 1\nvalue = [1, 0]\nclass = man", fillcolor="#e58139"] ;
223 -> 225 ;
226 [label="a22 <= 0.5\ngini = 0.124\nsamples = 15\nvalue = [14, 1]\nclass = man", fillcolor="#e78a47"] ;
162 -> 226 ;
227 [label="gini = 0.0\nsamples = 11\nvalue = [11, 0]\nclass = man", fillcolor="#e58139"] ;
226 -> 227 ;
228 [label="a30 <= 2.0\ngini = 0.375\nsamples = 4\nvalue = [3, 1]\nclass = man", fillcolor="#eeab7b"] ;
226 -> 228 ;
229 [label="gini = 0.0\nsamples = 3\nvalue = [3, 0]\nclass = man", fillcolor="#e58139"] ;
228 -> 229 ;
230 [label="gini = 0.0\nsamples = 1\nvalue = [0, 1]\nclass = woman", fillcolor="#399de5"] ;
228 -> 230 ;
231 [label="a15 <= 0.5\ngini = 0.5\nsamples = 101\nvalue = [49, 52]\nclass = woman", fillcolor="#f4f9fe"] ;
157 -> 231 ;
232 [label="wp00tbgp <= 707.957\ngini = 0.497\nsamples = 97\nvalue = [45, 52]\nclass = woman", fillcolor="#e4f2fc"] ;
231 -> 232 ;
233 [label="wp00tbgp <= 682.018\ngini = 0.375\nsamples = 12\nvalue = [9, 3]\nclass = man", fillcolor="#eeab7b"] ;
232 -> 233 ;
234 [label="birthyr <= 1953.0\ngini = 0.444\nsamples = 3\nvalue = [1, 2]\nclass = woman", fillcolor="#9ccef2"] ;
233 -> 234 ;
235 [label="gini = 0.0\nsamples = 1\nvalue = [1, 0]\nclass = man", fillcolor="#e58139"] ;
234 -> 235 ;
236 [label="gini = 0.0\nsamples = 2\nvalue = [0, 2]\nclass = woman", fillcolor="#399de5"] ;
234 -> 236 ;
237 [label="a16 <= 0.5\ngini = 0.198\nsamples = 9\nvalue = [8, 1]\nclass = man", fillcolor="#e89152"] ;
233 -> 237 ;
238 [label="gini = 0.0\nsamples = 7\nvalue = [7, 0]\nclass = man", fillcolor="#e58139"] ;
237 -> 238 ;
239 [label="birthyr <= 1955.0\ngini = 0.5\nsamples = 2\nvalue = [1, 1]\nclass = man", fillcolor="#ffffff"] ;
237 -> 239 ;
240 [label="gini = 0.0\nsamples = 1\nvalue = [0, 1]\nclass = woman", fillcolor="#399de5"] ;
239 -> 240 ;
241 [label="gini = 0.0\nsamples = 1\nvalue = [1, 0]\nclass = man", fillcolor="#e58139"] ;
239 -> 241 ;
242 [label="birthyr <= 1956.5\ngini = 0.488\nsamples = 85\nvalue = [36, 49]\nclass = woman", fillcolor="#cae5f8"] ;
232 -> 242 ;
243 [label="wp00tbgp <= 820.685\ngini = 0.476\nsamples = 77\nvalue = [30, 47]\nclass = woman", fillcolor="#b7dcf6"] ;
242 -> 243 ;
244 [label="wp00tbgp <= 797.703\ngini = 0.434\nsamples = 44\nvalue = [14, 30]\nclass = woman", fillcolor="#95cbf1"] ;
243 -> 244 ;
245 [label="wp00tbgp <= 795.55\ngini = 0.472\nsamples = 34\nvalue = [13, 21]\nclass = woman", fillcolor="#b4daf5"] ;
244 -> 245 ;
246 [label="a30 <= 2.0\ngini = 0.451\nsamples = 32\nvalue = [11, 21]\nclass = woman", fillcolor="#a1d0f3"] ;
245 -> 246 ;
247 [label="wp00tbgp <= 727.707\ngini = 0.5\nsamples = 12\nvalue = [6, 6]\nclass = man", fillcolor="#ffffff"] ;
246 -> 247 ;
248 [label="gini = 0.0\nsamples = 2\nvalue = [2, 0]\nclass = man", fillcolor="#e58139"] ;
247 -> 248 ;
249 [label="wp00tbgp <= 742.353\ngini = 0.48\nsamples = 10\nvalue = [4, 6]\nclass = woman", fillcolor="#bddef6"] ;
247 -> 249 ;
250 [label="gini = 0.0\nsamples = 2\nvalue = [0, 2]\nclass = woman", fillcolor="#399de5"] ;
249 -> 250 ;
251 [label="wp00tbgs <= 0.671\ngini = 0.5\nsamples = 8\nvalue = [4, 4]\nclass = man", fillcolor="#ffffff"] ;
249 -> 251 ;
252 [label="gini = 0.0\nsamples = 2\nvalue = [2, 0]\nclass = man", fillcolor="#e58139"] ;
251 -> 252 ;
253 [label="wp00tbgs <= 0.687\ngini = 0.444\nsamples = 6\nvalue = [2, 4]\nclass = woman", fillcolor="#9ccef2"] ;
251 -> 253 ;
254 [label="gini = 0.0\nsamples = 3\nvalue = [0, 3]\nclass = woman", fillcolor="#399de5"] ;
253 -> 254 ;
255 [label="wp00tbgp <= 787.76\ngini = 0.444\nsamples = 3\nvalue = [2, 1]\nclass = man", fillcolor="#f2c09c"] ;
253 -> 255 ;
256 [label="gini = 0.0\nsamples = 2\nvalue = [2, 0]\nclass = man", fillcolor="#e58139"] ;
255 -> 256 ;
257 [label="gini = 0.0\nsamples = 1\nvalue = [0, 1]\nclass = woman", fillcolor="#399de5"] ;
255 -> 257 ;
258 [label="a19 <= 0.5\ngini = 0.375\nsamples = 20\nvalue = [5, 15]\nclass = woman", fillcolor="#7bbeee"] ;
246 -> 258 ;
259 [label="a20 <= 0.5\ngini = 0.494\nsamples = 9\nvalue = [4, 5]\nclass = woman", fillcolor="#d7ebfa"] ;
258 -> 259 ;
260 [label="gini = 0.0\nsamples = 4\nvalue = [0, 4]\nclass = woman", fillcolor="#399de5"] ;
259 -> 260 ;
261 [label="a26 <= 2.0\ngini = 0.32\nsamples = 5\nvalue = [4, 1]\nclass = man", fillcolor="#eca06a"] ;
259 -> 261 ;
262 [label="gini = 0.0\nsamples = 3\nvalue = [3, 0]\nclass = man", fillcolor="#e58139"] ;
261 -> 262 ;
263 [label="wp00tbgs <= 0.687\ngini = 0.5\nsamples = 2\nvalue = [1, 1]\nclass = man", fillcolor="#ffffff"] ;
261 -> 263 ;
264 [label="gini = 0.0\nsamples = 1\nvalue = [0, 1]\nclass = woman", fillcolor="#399de5"] ;
263 -> 264 ;
265 [label="gini = 0.0\nsamples = 1\nvalue = [1, 0]\nclass = man", fillcolor="#e58139"] ;
263 -> 265 ;
266 [label="birthyr <= 1954.5\ngini = 0.165\nsamples = 11\nvalue = [1, 10]\nclass = woman", fillcolor="#4da7e8"] ;
258 -> 266 ;
267 [label="gini = 0.0\nsamples = 9\nvalue = [0, 9]\nclass = woman", fillcolor="#399de5"] ;
266 -> 267 ;
268 [label="wp00tbgs <= 0.644\ngini = 0.5\nsamples = 2\nvalue = [1, 1]\nclass = man", fillcolor="#ffffff"] ;
266 -> 268 ;
269 [label="gini = 0.0\nsamples = 1\nvalue = [0, 1]\nclass = woman", fillcolor="#399de5"] ;
268 -> 269 ;
270 [label="gini = 0.0\nsamples = 1\nvalue = [1, 0]\nclass = man", fillcolor="#e58139"] ;
268 -> 270 ;
271 [label="gini = 0.0\nsamples = 2\nvalue = [2, 0]\nclass = man", fillcolor="#e58139"] ;
245 -> 271 ;
272 [label="wp00tbgs <= 0.724\ngini = 0.18\nsamples = 10\nvalue = [1, 9]\nclass = woman", fillcolor="#4fa8e8"] ;
244 -> 272 ;
273 [label="gini = 0.0\nsamples = 7\nvalue = [0, 7]\nclass = woman", fillcolor="#399de5"] ;
272 -> 273 ;
274 [label="wp00tbgp <= 817.1\ngini = 0.444\nsamples = 3\nvalue = [1, 2]\nclass = woman", fillcolor="#9ccef2"] ;
272 -> 274 ;
275 [label="gini = 0.0\nsamples = 1\nvalue = [1, 0]\nclass = man", fillcolor="#e58139"] ;
274 -> 275 ;
276 [label="gini = 0.0\nsamples = 2\nvalue = [0, 2]\nclass = woman", fillcolor="#399de5"] ;
274 -> 276 ;
277 [label="birthyr <= 1947.5\ngini = 0.5\nsamples = 33\nvalue = [16, 17]\nclass = woman", fillcolor="#f3f9fd"] ;
243 -> 277 ;
278 [label="gini = 0.0\nsamples = 3\nvalue = [0, 3]\nclass = woman", fillcolor="#399de5"] ;
277 -> 278 ;
279 [label="wp00tbgp <= 852.621\ngini = 0.498\nsamples = 30\nvalue = [16, 14]\nclass = man", fillcolor="#fcefe6"] ;
277 -> 279 ;
280 [label="a30 <= 5.5\ngini = 0.346\nsamples = 9\nvalue = [7, 2]\nclass = man", fillcolor="#eca572"] ;
279 -> 280 ;
281 [label="gini = 0.0\nsamples = 6\nvalue = [6, 0]\nclass = man", fillcolor="#e58139"] ;
280 -> 281 ;
282 [label="birthyr <= 1952.5\ngini = 0.444\nsamples = 3\nvalue = [1, 2]\nclass = woman", fillcolor="#9ccef2"] ;
280 -> 282 ;
283 [label="gini = 0.0\nsamples = 1\nvalue = [1, 0]\nclass = man", fillcolor="#e58139"] ;
282 -> 283 ;
284 [label="gini = 0.0\nsamples = 2\nvalue = [0, 2]\nclass = woman", fillcolor="#399de5"] ;
282 -> 284 ;
285 [label="wp00tbgp <= 861.953\ngini = 0.49\nsamples = 21\nvalue = [9, 12]\nclass = woman", fillcolor="#cee6f8"] ;
279 -> 285 ;
286 [label="gini = 0.0\nsamples = 4\nvalue = [0, 4]\nclass = woman", fillcolor="#399de5"] ;
285 -> 286 ;
287 [label="a16 <= 0.5\ngini = 0.498\nsamples = 17\nvalue = [9, 8]\nclass = man", fillcolor="#fcf1e9"] ;
285 -> 287 ;
288 [label="wp00tbgs <= 0.768\ngini = 0.473\nsamples = 13\nvalue = [5, 8]\nclass = woman", fillcolor="#b5daf5"] ;
287 -> 288 ;
289 [label="gini = 0.0\nsamples = 1\nvalue = [1, 0]\nclass = man", fillcolor="#e58139"] ;
288 -> 289 ;
290 [label="wp00tbgp <= 889.35\ngini = 0.444\nsamples = 12\nvalue = [4, 8]\nclass = woman", fillcolor="#9ccef2"] ;
288 -> 290 ;
291 [label="gini = 0.0\nsamples = 3\nvalue = [0, 3]\nclass = woman", fillcolor="#399de5"] ;
290 -> 291 ;
292 [label="wp00tbgp <= 919.742\ngini = 0.494\nsamples = 9\nvalue = [4, 5]\nclass = woman", fillcolor="#d7ebfa"] ;
290 -> 292 ;
293 [label="a17 <= 0.5\ngini = 0.375\nsamples = 4\nvalue = [3, 1]\nclass = man", fillcolor="#eeab7b"] ;
292 -> 293 ;
294 [label="gini = 0.0\nsamples = 3\nvalue = [3, 0]\nclass = man", fillcolor="#e58139"] ;
293 -> 294 ;
295 [label="gini = 0.0\nsamples = 1\nvalue = [0, 1]\nclass = woman", fillcolor="#399de5"] ;
293 -> 295 ;
296 [label="birthyr <= 1953.5\ngini = 0.32\nsamples = 5\nvalue = [1, 4]\nclass = woman", fillcolor="#6ab6ec"] ;
292 -> 296 ;
297 [label="gini = 0.0\nsamples = 3\nvalue = [0, 3]\nclass = woman", fillcolor="#399de5"] ;
296 -> 297 ;
298 [label="a20 <= 0.5\ngini = 0.5\nsamples = 2\nvalue = [1, 1]\nclass = man", fillcolor="#ffffff"] ;
296 -> 298 ;
299 [label="gini = 0.0\nsamples = 1\nvalue = [1, 0]\nclass = man", fillcolor="#e58139"] ;
298 -> 299 ;
300 [label="gini = 0.0\nsamples = 1\nvalue = [0, 1]\nclass = woman", fillcolor="#399de5"] ;
298 -> 300 ;
301 [label="gini = 0.0\nsamples = 4\nvalue = [4, 0]\nclass = man", fillcolor="#e58139"] ;
287 -> 301 ;
302 [label="wp00tbgp <= 816.816\ngini = 0.375\nsamples = 8\nvalue = [6, 2]\nclass = man", fillcolor="#eeab7b"] ;
242 -> 302 ;
303 [label="a19 <= 0.5\ngini = 0.48\nsamples = 5\nvalue = [3, 2]\nclass = man", fillcolor="#f6d5bd"] ;
302 -> 303 ;
304 [label="gini = 0.0\nsamples = 2\nvalue = [0, 2]\nclass = woman", fillcolor="#399de5"] ;
303 -> 304 ;
305 [label="gini = 0.0\nsamples = 3\nvalue = [3, 0]\nclass = man", fillcolor="#e58139"] ;
303 -> 305 ;
306 [label="gini = 0.0\nsamples = 3\nvalue = [3, 0]\nclass = man", fillcolor="#e58139"] ;
302 -> 306 ;
307 [label="gini = 0.0\nsamples = 4\nvalue = [4, 0]\nclass = man", fillcolor="#e58139"] ;
231 -> 307 ;
308 [label="a28 <= 5.0\ngini = 0.473\nsamples = 47\nvalue = [18, 29]\nclass = woman", fillcolor="#b4daf5"] ;
140 -> 308 ;
309 [label="wp00tbgp <= 739.235\ngini = 0.298\nsamples = 22\nvalue = [4, 18]\nclass = woman", fillcolor="#65b3eb"] ;
308 -> 309 ;
310 [label="birthyr <= 1952.5\ngini = 0.49\nsamples = 7\nvalue = [3, 4]\nclass = woman", fillcolor="#cee6f8"] ;
309 -> 310 ;
311 [label="wp00tbgs <= 0.617\ngini = 0.375\nsamples = 4\nvalue = [3, 1]\nclass = man", fillcolor="#eeab7b"] ;
310 -> 311 ;
312 [label="gini = 0.0\nsamples = 1\nvalue = [0, 1]\nclass = woman", fillcolor="#399de5"] ;
311 -> 312 ;
313 [label="gini = 0.0\nsamples = 3\nvalue = [3, 0]\nclass = man", fillcolor="#e58139"] ;
311 -> 313 ;
314 [label="gini = 0.0\nsamples = 3\nvalue = [0, 3]\nclass = woman", fillcolor="#399de5"] ;
310 -> 314 ;
315 [label="a20 <= 0.5\ngini = 0.124\nsamples = 15\nvalue = [1, 14]\nclass = woman", fillcolor="#47a4e7"] ;
309 -> 315 ;
316 [label="gini = 0.0\nsamples = 11\nvalue = [0, 11]\nclass = woman", fillcolor="#399de5"] ;
315 -> 316 ;
317 [label="wp00tbgp <= 775.027\ngini = 0.375\nsamples = 4\nvalue = [1, 3]\nclass = woman", fillcolor="#7bbeee"] ;
315 -> 317 ;
318 [label="gini = 0.0\nsamples = 1\nvalue = [1, 0]\nclass = man", fillcolor="#e58139"] ;
317 -> 318 ;
319 [label="gini = 0.0\nsamples = 3\nvalue = [0, 3]\nclass = woman", fillcolor="#399de5"] ;
317 -> 319 ;
320 [label="birthyr <= 1954.5\ngini = 0.493\nsamples = 25\nvalue = [14, 11]\nclass = man", fillcolor="#f9e4d5"] ;
308 -> 320 ;
321 [label="a25 <= 5.5\ngini = 0.337\nsamples = 14\nvalue = [11, 3]\nclass = man", fillcolor="#eca36f"] ;
320 -> 321 ;
322 [label="wp00tbgp <= 772.261\ngini = 0.165\nsamples = 11\nvalue = [10, 1]\nclass = man", fillcolor="#e88e4d"] ;
321 -> 322 ;
323 [label="gini = 0.0\nsamples = 8\nvalue = [8, 0]\nclass = man", fillcolor="#e58139"] ;
322 -> 323 ;
324 [label="birthyr <= 1949.5\ngini = 0.444\nsamples = 3\nvalue = [2, 1]\nclass = man", fillcolor="#f2c09c"] ;
322 -> 324 ;
325 [label="gini = 0.0\nsamples = 1\nvalue = [0, 1]\nclass = woman", fillcolor="#399de5"] ;
324 -> 325 ;
326 [label="gini = 0.0\nsamples = 2\nvalue = [2, 0]\nclass = man", fillcolor="#e58139"] ;
324 -> 326 ;
327 [label="a24 <= 0.5\ngini = 0.444\nsamples = 3\nvalue = [1, 2]\nclass = woman", fillcolor="#9ccef2"] ;
321 -> 327 ;
328 [label="gini = 0.0\nsamples = 2\nvalue = [0, 2]\nclass = woman", fillcolor="#399de5"] ;
327 -> 328 ;
329 [label="gini = 0.0\nsamples = 1\nvalue = [1, 0]\nclass = man", fillcolor="#e58139"] ;
327 -> 329 ;
330 [label="a24 <= 0.5\ngini = 0.397\nsamples = 11\nvalue = [3, 8]\nclass = woman", fillcolor="#83c2ef"] ;
320 -> 330 ;
331 [label="wp00tbgp <= 755.15\ngini = 0.375\nsamples = 4\nvalue = [3, 1]\nclass = man", fillcolor="#eeab7b"] ;
330 -> 331 ;
332 [label="wp00tbgs <= 0.605\ngini = 0.5\nsamples = 2\nvalue = [1, 1]\nclass = man", fillcolor="#ffffff"] ;
331 -> 332 ;
333 [label="gini = 0.0\nsamples = 1\nvalue = [1, 0]\nclass = man", fillcolor="#e58139"] ;
332 -> 333 ;
334 [label="gini = 0.0\nsamples = 1\nvalue = [0, 1]\nclass = woman", fillcolor="#399de5"] ;
332 -> 334 ;
335 [label="gini = 0.0\nsamples = 2\nvalue = [2, 0]\nclass = man", fillcolor="#e58139"] ;
331 -> 335 ;
336 [label="gini = 0.0\nsamples = 7\nvalue = [0, 7]\nclass = woman", fillcolor="#399de5"] ;
330 -> 336 ;
337 [label="birthyr <= 1945.5\ngini = 0.5\nsamples = 665\nvalue = [328, 337]\nclass = woman", fillcolor="#fafcfe"] ;
75 -> 337 ;
338 [label="a16 <= 0.5\ngini = 0.491\nsamples = 486\nvalue = [210, 276]\nclass = woman", fillcolor="#d0e8f9"] ;
337 -> 338 ;
339 [label="wp00tbgs <= 0.909\ngini = 0.494\nsamples = 463\nvalue = [207, 256]\nclass = woman", fillcolor="#d9ecfa"] ;
338 -> 339 ;
340 [label="birthyr <= 1926.5\ngini = 0.48\nsamples = 60\nvalue = [36, 24]\nclass = man", fillcolor="#f6d5bd"] ;
339 -> 340 ;
341 [label="gini = 0.0\nsamples = 10\nvalue = [10, 0]\nclass = man", fillcolor="#e58139"] ;
340 -> 341 ;
342 [label="wp00tbgs <= 0.857\ngini = 0.499\nsamples = 50\nvalue = [26, 24]\nclass = man", fillcolor="#fdf5f0"] ;
340 -> 342 ;
343 [label="gini = 0.0\nsamples = 4\nvalue = [0, 4]\nclass = woman", fillcolor="#399de5"] ;
342 -> 343 ;
344 [label="a26 <= 2.5\ngini = 0.491\nsamples = 46\nvalue = [26, 20]\nclass = man", fillcolor="#f9e2d1"] ;
342 -> 344 ;
345 [label="a26 <= 0.5\ngini = 0.444\nsamples = 30\nvalue = [20, 10]\nclass = man", fillcolor="#f2c09c"] ;
344 -> 345 ;
346 [label="birthyr <= 1938.5\ngini = 0.5\nsamples = 18\nvalue = [9, 9]\nclass = man", fillcolor="#ffffff"] ;
345 -> 346 ;
347 [label="wp00tbgp <= 1012.232\ngini = 0.397\nsamples = 11\nvalue = [3, 8]\nclass = woman", fillcolor="#83c2ef"] ;
346 -> 347 ;
348 [label="wp00tbgs <= 0.887\ngini = 0.32\nsamples = 10\nvalue = [2, 8]\nclass = woman", fillcolor="#6ab6ec"] ;
347 -> 348 ;
349 [label="wp00tbgs <= 0.869\ngini = 0.444\nsamples = 6\nvalue = [2, 4]\nclass = woman", fillcolor="#9ccef2"] ;
348 -> 349 ;
350 [label="gini = 0.0\nsamples = 3\nvalue = [0, 3]\nclass = woman", fillcolor="#399de5"] ;
349 -> 350 ;
351 [label="birthyr <= 1928.5\ngini = 0.444\nsamples = 3\nvalue = [2, 1]\nclass = man", fillcolor="#f2c09c"] ;
349 -> 351 ;
352 [label="gini = 0.0\nsamples = 1\nvalue = [0, 1]\nclass = woman", fillcolor="#399de5"] ;
351 -> 352 ;
353 [label="gini = 0.0\nsamples = 2\nvalue = [2, 0]\nclass = man", fillcolor="#e58139"] ;
351 -> 353 ;
354 [label="gini = 0.0\nsamples = 4\nvalue = [0, 4]\nclass = woman", fillcolor="#399de5"] ;
348 -> 354 ;
355 [label="gini = 0.0\nsamples = 1\nvalue = [1, 0]\nclass = man", fillcolor="#e58139"] ;
347 -> 355 ;
356 [label="wp00tbgs <= 0.894\ngini = 0.245\nsamples = 7\nvalue = [6, 1]\nclass = man", fillcolor="#e9965a"] ;
346 -> 356 ;
357 [label="gini = 0.0\nsamples = 5\nvalue = [5, 0]\nclass = man", fillcolor="#e58139"] ;
356 -> 357 ;
358 [label="wp00tbgp <= 1009.177\ngini = 0.5\nsamples = 2\nvalue = [1, 1]\nclass = man", fillcolor="#ffffff"] ;
356 -> 358 ;
359 [label="gini = 0.0\nsamples = 1\nvalue = [0, 1]\nclass = woman", fillcolor="#399de5"] ;
358 -> 359 ;
360 [label="gini = 0.0\nsamples = 1\nvalue = [1, 0]\nclass = man", fillcolor="#e58139"] ;
358 -> 360 ;
361 [label="birthyr <= 1944.5\ngini = 0.153\nsamples = 12\nvalue = [11, 1]\nclass = man", fillcolor="#e78c4b"] ;
345 -> 361 ;
362 [label="gini = 0.0\nsamples = 11\nvalue = [11, 0]\nclass = man", fillcolor="#e58139"] ;
361 -> 362 ;
363 [label="gini = 0.0\nsamples = 1\nvalue = [0, 1]\nclass = woman", fillcolor="#399de5"] ;
361 -> 363 ;
364 [label="birthyr <= 1930.5\ngini = 0.469\nsamples = 16\nvalue = [6, 10]\nclass = woman", fillcolor="#b0d8f5"] ;
344 -> 364 ;
365 [label="gini = 0.0\nsamples = 2\nvalue = [2, 0]\nclass = man", fillcolor="#e58139"] ;
364 -> 365 ;
366 [label="wp00tbgp <= 980.708\ngini = 0.408\nsamples = 14\nvalue = [4, 10]\nclass = woman", fillcolor="#88c4ef"] ;
364 -> 366 ;
367 [label="a25 <= 1.5\ngini = 0.444\nsamples = 3\nvalue = [2, 1]\nclass = man", fillcolor="#f2c09c"] ;
366 -> 367 ;
368 [label="gini = 0.0\nsamples = 1\nvalue = [0, 1]\nclass = woman", fillcolor="#399de5"] ;
367 -> 368 ;
369 [label="gini = 0.0\nsamples = 2\nvalue = [2, 0]\nclass = man", fillcolor="#e58139"] ;
367 -> 369 ;
370 [label="a21 <= 0.5\ngini = 0.298\nsamples = 11\nvalue = [2, 9]\nclass = woman", fillcolor="#65b3eb"] ;
366 -> 370 ;
371 [label="gini = 0.0\nsamples = 6\nvalue = [0, 6]\nclass = woman", fillcolor="#399de5"] ;
370 -> 371 ;
372 [label="a19 <= 0.5\ngini = 0.48\nsamples = 5\nvalue = [2, 3]\nclass = woman", fillcolor="#bddef6"] ;
370 -> 372 ;
373 [label="a26 <= 4.5\ngini = 0.444\nsamples = 3\nvalue = [2, 1]\nclass = man", fillcolor="#f2c09c"] ;
372 -> 373 ;
374 [label="gini = 0.0\nsamples = 2\nvalue = [2, 0]\nclass = man", fillcolor="#e58139"] ;
373 -> 374 ;
375 [label="gini = 0.0\nsamples = 1\nvalue = [0, 1]\nclass = woman", fillcolor="#399de5"] ;
373 -> 375 ;
376 [label="gini = 0.0\nsamples = 2\nvalue = [0, 2]\nclass = woman", fillcolor="#399de5"] ;
372 -> 376 ;
377 [label="wp00tbgs <= 1.557\ngini = 0.489\nsamples = 403\nvalue = [171, 232]\nclass = woman", fillcolor="#cbe5f8"] ;
339 -> 377 ;
378 [label="birthyr <= 1912.5\ngini = 0.472\nsamples = 281\nvalue = [107, 174]\nclass = woman", fillcolor="#b3d9f5"] ;
377 -> 378 ;
379 [label="gini = 0.0\nsamples = 3\nvalue = [3, 0]\nclass = man", fillcolor="#e58139"] ;
378 -> 379 ;
380 [label="wp00tbgs <= 0.966\ngini = 0.468\nsamples = 278\nvalue = [104, 174]\nclass = woman", fillcolor="#afd8f5"] ;
378 -> 380 ;
381 [label="wp00tbgs <= 0.94\ngini = 0.5\nsamples = 55\nvalue = [27, 28]\nclass = woman", fillcolor="#f8fcfe"] ;
380 -> 381 ;
382 [label="wp00tbgp <= 1026.623\ngini = 0.438\nsamples = 34\nvalue = [11, 23]\nclass = woman", fillcolor="#98ccf1"] ;
381 -> 382 ;
383 [label="gini = 0.0\nsamples = 6\nvalue = [0, 6]\nclass = woman", fillcolor="#399de5"] ;
382 -> 383 ;
384 [label="wp00tbgp <= 1031.51\ngini = 0.477\nsamples = 28\nvalue = [11, 17]\nclass = woman", fillcolor="#b9dcf6"] ;
382 -> 384 ;
385 [label="gini = 0.0\nsamples = 5\nvalue = [5, 0]\nclass = man", fillcolor="#e58139"] ;
384 -> 385 ;
386 [label="birthyr <= 1927.0\ngini = 0.386\nsamples = 23\nvalue = [6, 17]\nclass = woman", fillcolor="#7fc0ee"] ;
384 -> 386 ;
387 [label="gini = 0.0\nsamples = 2\nvalue = [2, 0]\nclass = man", fillcolor="#e58139"] ;
386 -> 387 ;
388 [label="a27 <= 0.5\ngini = 0.308\nsamples = 21\nvalue = [4, 17]\nclass = woman", fillcolor="#68b4eb"] ;
386 -> 388 ;
389 [label="gini = 0.0\nsamples = 1\nvalue = [1, 0]\nclass = man", fillcolor="#e58139"] ;
388 -> 389 ;
390 [label="birthyr <= 1939.5\ngini = 0.255\nsamples = 20\nvalue = [3, 17]\nclass = woman", fillcolor="#5caeea"] ;
388 -> 390 ;
391 [label="birthyr <= 1930.5\ngini = 0.375\nsamples = 12\nvalue = [3, 9]\nclass = woman", fillcolor="#7bbeee"] ;
390 -> 391 ;
392 [label="a22 <= 0.5\ngini = 0.5\nsamples = 2\nvalue = [1, 1]\nclass = man", fillcolor="#ffffff"] ;
391 -> 392 ;
393 [label="gini = 0.0\nsamples = 1\nvalue = [1, 0]\nclass = man", fillcolor="#e58139"] ;
392 -> 393 ;
394 [label="gini = 0.0\nsamples = 1\nvalue = [0, 1]\nclass = woman", fillcolor="#399de5"] ;
392 -> 394 ;
395 [label="wp00tbgs <= 0.919\ngini = 0.32\nsamples = 10\nvalue = [2, 8]\nclass = woman", fillcolor="#6ab6ec"] ;
391 -> 395 ;
396 [label="birthyr <= 1936.0\ngini = 0.5\nsamples = 2\nvalue = [1, 1]\nclass = man", fillcolor="#ffffff"] ;
395 -> 396 ;
397 [label="gini = 0.0\nsamples = 1\nvalue = [0, 1]\nclass = woman", fillcolor="#399de5"] ;
396 -> 397 ;
398 [label="gini = 0.0\nsamples = 1\nvalue = [1, 0]\nclass = man", fillcolor="#e58139"] ;
396 -> 398 ;
399 [label="a25 <= 0.5\ngini = 0.219\nsamples = 8\nvalue = [1, 7]\nclass = woman", fillcolor="#55abe9"] ;
395 -> 399 ;
400 [label="birthyr <= 1937.0\ngini = 0.444\nsamples = 3\nvalue = [1, 2]\nclass = woman", fillcolor="#9ccef2"] ;
399 -> 400 ;
401 [label="gini = 0.0\nsamples = 1\nvalue = [1, 0]\nclass = man", fillcolor="#e58139"] ;
400 -> 401 ;
402 [label="gini = 0.0\nsamples = 2\nvalue = [0, 2]\nclass = woman", fillcolor="#399de5"] ;
400 -> 402 ;
403 [label="gini = 0.0\nsamples = 5\nvalue = [0, 5]\nclass = woman", fillcolor="#399de5"] ;
399 -> 403 ;
404 [label="gini = 0.0\nsamples = 8\nvalue = [0, 8]\nclass = woman", fillcolor="#399de5"] ;
390 -> 404 ;
405 [label="birthyr <= 1936.0\ngini = 0.363\nsamples = 21\nvalue = [16, 5]\nclass = man", fillcolor="#eda877"] ;
381 -> 405 ;
406 [label="birthyr <= 1923.5\ngini = 0.165\nsamples = 11\nvalue = [10, 1]\nclass = man", fillcolor="#e88e4d"] ;
405 -> 406 ;
407 [label="wp00tbgs <= 0.947\ngini = 0.5\nsamples = 2\nvalue = [1, 1]\nclass = man", fillcolor="#ffffff"] ;
406 -> 407 ;
408 [label="gini = 0.0\nsamples = 1\nvalue = [1, 0]\nclass = man", fillcolor="#e58139"] ;
407 -> 408 ;
409 [label="gini = 0.0\nsamples = 1\nvalue = [0, 1]\nclass = woman", fillcolor="#399de5"] ;
407 -> 409 ;
410 [label="gini = 0.0\nsamples = 9\nvalue = [9, 0]\nclass = man", fillcolor="#e58139"] ;
406 -> 410 ;
411 [label="wp00tbgp <= 1063.562\ngini = 0.48\nsamples = 10\nvalue = [6, 4]\nclass = man", fillcolor="#f6d5bd"] ;
405 -> 411 ;
412 [label="gini = 0.0\nsamples = 3\nvalue = [3, 0]\nclass = man", fillcolor="#e58139"] ;
411 -> 412 ;
413 [label="a28 <= 1.5\ngini = 0.49\nsamples = 7\nvalue = [3, 4]\nclass = woman", fillcolor="#cee6f8"] ;
411 -> 413 ;
414 [label="gini = 0.0\nsamples = 2\nvalue = [0, 2]\nclass = woman", fillcolor="#399de5"] ;
413 -> 414 ;
415 [label="a26 <= 0.5\ngini = 0.48\nsamples = 5\nvalue = [3, 2]\nclass = man", fillcolor="#f6d5bd"] ;
413 -> 415 ;
416 [label="gini = 0.0\nsamples = 2\nvalue = [2, 0]\nclass = man", fillcolor="#e58139"] ;
415 -> 416 ;
417 [label="a19 <= 0.5\ngini = 0.444\nsamples = 3\nvalue = [1, 2]\nclass = woman", fillcolor="#9ccef2"] ;
415 -> 417 ;
418 [label="gini = 0.0\nsamples = 2\nvalue = [0, 2]\nclass = woman", fillcolor="#399de5"] ;
417 -> 418 ;
419 [label="gini = 0.0\nsamples = 1\nvalue = [1, 0]\nclass = man", fillcolor="#e58139"] ;
417 -> 419 ;
420 [label="a29 <= 2.5\ngini = 0.452\nsamples = 223\nvalue = [77, 146]\nclass = woman", fillcolor="#a1d1f3"] ;
380 -> 420 ;
421 [label="wp00tbgs <= 0.982\ngini = 0.485\nsamples = 121\nvalue = [50, 71]\nclass = woman", fillcolor="#c4e2f7"] ;
420 -> 421 ;
422 [label="wp00tbgs <= 0.971\ngini = 0.18\nsamples = 10\nvalue = [1, 9]\nclass = woman", fillcolor="#4fa8e8"] ;
421 -> 422 ;
423 [label="gini = 0.0\nsamples = 1\nvalue = [1, 0]\nclass = man", fillcolor="#e58139"] ;
422 -> 423 ;
424 [label="gini = 0.0\nsamples = 9\nvalue = [0, 9]\nclass = woman", fillcolor="#399de5"] ;
422 -> 424 ;
425 [label="wp00tbgp <= 1129.96\ngini = 0.493\nsamples = 111\nvalue = [49, 62]\nclass = woman", fillcolor="#d5eafa"] ;
421 -> 425 ;
426 [label="gini = 0.0\nsamples = 4\nvalue = [4, 0]\nclass = man", fillcolor="#e58139"] ;
425 -> 426 ;
427 [label="a17 <= 0.5\ngini = 0.487\nsamples = 107\nvalue = [45, 62]\nclass = woman", fillcolor="#c9e4f8"] ;
425 -> 427 ;
428 [label="birthyr <= 1917.5\ngini = 0.482\nsamples = 104\nvalue = [42, 62]\nclass = woman", fillcolor="#bfdff7"] ;
427 -> 428 ;
429 [label="gini = 0.0\nsamples = 5\nvalue = [0, 5]\nclass = woman", fillcolor="#399de5"] ;
428 -> 429 ;
430 [label="a25 <= 0.5\ngini = 0.489\nsamples = 99\nvalue = [42, 57]\nclass = woman", fillcolor="#cbe5f8"] ;
428 -> 430 ;
431 [label="birthyr <= 1934.5\ngini = 0.5\nsamples = 65\nvalue = [32, 33]\nclass = woman", fillcolor="#f9fcfe"] ;
430 -> 431 ;
432 [label="wp00tbgp <= 1385.557\ngini = 0.484\nsamples = 39\nvalue = [16, 23]\nclass = woman", fillcolor="#c3e1f7"] ;
431 -> 432 ;
433 [label="wp00tbgp <= 1155.53\ngini = 0.496\nsamples = 22\nvalue = [12, 10]\nclass = man", fillcolor="#fbeade"] ;
432 -> 433 ;
434 [label="gini = 0.0\nsamples = 2\nvalue = [0, 2]\nclass = woman", fillcolor="#399de5"] ;
433 -> 434 ;
435 [label="birthyr <= 1926.5\ngini = 0.48\nsamples = 20\nvalue = [12, 8]\nclass = man", fillcolor="#f6d5bd"] ;
433 -> 435 ;
436 [label="a30 <= 1.5\ngini = 0.5\nsamples = 14\nvalue = [7, 7]\nclass = man", fillcolor="#ffffff"] ;
435 -> 436 ;
437 [label="birthyr <= 1924.5\ngini = 0.444\nsamples = 6\nvalue = [2, 4]\nclass = woman", fillcolor="#9ccef2"] ;
436 -> 437 ;
438 [label="gini = 0.0\nsamples = 3\nvalue = [0, 3]\nclass = woman", fillcolor="#399de5"] ;
437 -> 438 ;
439 [label="wp00tbgp <= 1222.919\ngini = 0.444\nsamples = 3\nvalue = [2, 1]\nclass = man", fillcolor="#f2c09c"] ;
437 -> 439 ;
440 [label="gini = 0.0\nsamples = 1\nvalue = [0, 1]\nclass = woman", fillcolor="#399de5"] ;
439 -> 440 ;
441 [label="gini = 0.0\nsamples = 2\nvalue = [2, 0]\nclass = man", fillcolor="#e58139"] ;
439 -> 441 ;
442 [label="birthyr <= 1925.5\ngini = 0.469\nsamples = 8\nvalue = [5, 3]\nclass = man", fillcolor="#f5cdb0"] ;
436 -> 442 ;
443 [label="a26 <= 1.0\ngini = 0.408\nsamples = 7\nvalue = [5, 2]\nclass = man", fillcolor="#efb388"] ;
442 -> 443 ;
444 [label="gini = 0.0\nsamples = 3\nvalue = [3, 0]\nclass = man", fillcolor="#e58139"] ;
443 -> 444 ;
445 [label="birthyr <= 1919.5\ngini = 0.5\nsamples = 4\nvalue = [2, 2]\nclass = man", fillcolor="#ffffff"] ;
443 -> 445 ;
446 [label="gini = 0.0\nsamples = 1\nvalue = [0, 1]\nclass = woman", fillcolor="#399de5"] ;
445 -> 446 ;
447 [label="birthyr <= 1924.0\ngini = 0.444\nsamples = 3\nvalue = [2, 1]\nclass = man", fillcolor="#f2c09c"] ;
445 -> 447 ;
448 [label="gini = 0.0\nsamples = 2\nvalue = [2, 0]\nclass = man", fillcolor="#e58139"] ;
447 -> 448 ;
449 [label="gini = 0.0\nsamples = 1\nvalue = [0, 1]\nclass = woman", fillcolor="#399de5"] ;
447 -> 449 ;
450 [label="gini = 0.0\nsamples = 1\nvalue = [0, 1]\nclass = woman", fillcolor="#399de5"] ;
442 -> 450 ;
451 [label="wp00tbgp <= 1294.415\ngini = 0.278\nsamples = 6\nvalue = [5, 1]\nclass = man", fillcolor="#ea9a61"] ;
435 -> 451 ;
452 [label="gini = 0.0\nsamples = 3\nvalue = [3, 0]\nclass = man", fillcolor="#e58139"] ;
451 -> 452 ;
453 [label="wp00tbgs <= 1.187\ngini = 0.444\nsamples = 3\nvalue = [2, 1]\nclass = man", fillcolor="#f2c09c"] ;
451 -> 453 ;
454 [label="gini = 0.0\nsamples = 1\nvalue = [0, 1]\nclass = woman", fillcolor="#399de5"] ;
453 -> 454 ;
455 [label="gini = 0.0\nsamples = 2\nvalue = [2, 0]\nclass = man", fillcolor="#e58139"] ;
453 -> 455 ;
456 [label="wp00tbgp <= 1491.076\ngini = 0.36\nsamples = 17\nvalue = [4, 13]\nclass = woman", fillcolor="#76bbed"] ;
432 -> 456 ;
457 [label="gini = 0.0\nsamples = 7\nvalue = [0, 7]\nclass = woman", fillcolor="#399de5"] ;
456 -> 457 ;
458 [label="wp00tbgp <= 1655.616\ngini = 0.48\nsamples = 10\nvalue = [4, 6]\nclass = woman", fillcolor="#bddef6"] ;
456 -> 458 ;
459 [label="wp00tbgs <= 1.379\ngini = 0.49\nsamples = 7\nvalue = [4, 3]\nclass = man", fillcolor="#f8e0ce"] ;
458 -> 459 ;
460 [label="wp00tbgp <= 1495.987\ngini = 0.375\nsamples = 4\nvalue = [1, 3]\nclass = woman", fillcolor="#7bbeee"] ;
459 -> 460 ;
461 [label="gini = 0.0\nsamples = 1\nvalue = [1, 0]\nclass = man", fillcolor="#e58139"] ;
460 -> 461 ;
462 [label="gini = 0.0\nsamples = 3\nvalue = [0, 3]\nclass = woman", fillcolor="#399de5"] ;
460 -> 462 ;
463 [label="gini = 0.0\nsamples = 3\nvalue = [3, 0]\nclass = man", fillcolor="#e58139"] ;
459 -> 463 ;
464 [label="gini = 0.0\nsamples = 3\nvalue = [0, 3]\nclass = woman", fillcolor="#399de5"] ;
458 -> 464 ;
465 [label="birthyr <= 1939.5\ngini = 0.473\nsamples = 26\nvalue = [16, 10]\nclass = man", fillcolor="#f5d0b5"] ;
431 -> 465 ;
466 [label="wp00tbgs <= 1.544\ngini = 0.278\nsamples = 12\nvalue = [10, 2]\nclass = man", fillcolor="#ea9a61"] ;
465 -> 466 ;
467 [label="a30 <= 2.5\ngini = 0.165\nsamples = 11\nvalue = [10, 1]\nclass = man", fillcolor="#e88e4d"] ;
466 -> 467 ;
468 [label="gini = 0.0\nsamples = 8\nvalue = [8, 0]\nclass = man", fillcolor="#e58139"] ;
467 -> 468 ;
469 [label="birthyr <= 1936.5\ngini = 0.444\nsamples = 3\nvalue = [2, 1]\nclass = man", fillcolor="#f2c09c"] ;
467 -> 469 ;
470 [label="gini = 0.0\nsamples = 2\nvalue = [2, 0]\nclass = man", fillcolor="#e58139"] ;
469 -> 470 ;
471 [label="gini = 0.0\nsamples = 1\nvalue = [0, 1]\nclass = woman", fillcolor="#399de5"] ;
469 -> 471 ;
472 [label="gini = 0.0\nsamples = 1\nvalue = [0, 1]\nclass = woman", fillcolor="#399de5"] ;
466 -> 472 ;
473 [label="wp00tbgs <= 1.205\ngini = 0.49\nsamples = 14\nvalue = [6, 8]\nclass = woman", fillcolor="#cee6f8"] ;
465 -> 473 ;
474 [label="wp00tbgs <= 1.02\ngini = 0.42\nsamples = 10\nvalue = [3, 7]\nclass = woman", fillcolor="#8ec7f0"] ;
473 -> 474 ;
475 [label="gini = 0.0\nsamples = 1\nvalue = [1, 0]\nclass = man", fillcolor="#e58139"] ;
474 -> 475 ;
476 [label="a29 <= 1.5\ngini = 0.346\nsamples = 9\nvalue = [2, 7]\nclass = woman", fillcolor="#72b9ec"] ;
474 -> 476 ;
477 [label="wp00tbgs <= 1.12\ngini = 0.219\nsamples = 8\nvalue = [1, 7]\nclass = woman", fillcolor="#55abe9"] ;
476 -> 477 ;
478 [label="gini = 0.0\nsamples = 5\nvalue = [0, 5]\nclass = woman", fillcolor="#399de5"] ;
477 -> 478 ;
479 [label="birthyr <= 1942.5\ngini = 0.444\nsamples = 3\nvalue = [1, 2]\nclass = woman", fillcolor="#9ccef2"] ;
477 -> 479 ;
480 [label="gini = 0.0\nsamples = 2\nvalue = [0, 2]\nclass = woman", fillcolor="#399de5"] ;
479 -> 480 ;
481 [label="gini = 0.0\nsamples = 1\nvalue = [1, 0]\nclass = man", fillcolor="#e58139"] ;
479 -> 481 ;
482 [label="gini = 0.0\nsamples = 1\nvalue = [1, 0]\nclass = man", fillcolor="#e58139"] ;
476 -> 482 ;
483 [label="wp00tbgs <= 1.433\ngini = 0.375\nsamples = 4\nvalue = [3, 1]\nclass = man", fillcolor="#eeab7b"] ;
473 -> 483 ;
484 [label="gini = 0.0\nsamples = 3\nvalue = [3, 0]\nclass = man", fillcolor="#e58139"] ;
483 -> 484 ;
485 [label="gini = 0.0\nsamples = 1\nvalue = [0, 1]\nclass = woman", fillcolor="#399de5"] ;
483 -> 485 ;
486 [label="wp00tbgs <= 1.187\ngini = 0.415\nsamples = 34\nvalue = [10, 24]\nclass = woman", fillcolor="#8bc6f0"] ;
430 -> 486 ;
487 [label="wp00tbgs <= 1.053\ngini = 0.255\nsamples = 20\nvalue = [3, 17]\nclass = woman", fillcolor="#5caeea"] ;
486 -> 487 ;
488 [label="birthyr <= 1940.5\ngini = 0.469\nsamples = 8\nvalue = [3, 5]\nclass = woman", fillcolor="#b0d8f5"] ;
487 -> 488 ;
489 [label="wp00tbgp <= 1172.794\ngini = 0.278\nsamples = 6\nvalue = [1, 5]\nclass = woman", fillcolor="#61b1ea"] ;
488 -> 489 ;
490 [label="gini = 0.0\nsamples = 5\nvalue = [0, 5]\nclass = woman", fillcolor="#399de5"] ;
489 -> 490 ;
491 [label="gini = 0.0\nsamples = 1\nvalue = [1, 0]\nclass = man", fillcolor="#e58139"] ;
489 -> 491 ;
492 [label="gini = 0.0\nsamples = 2\nvalue = [2, 0]\nclass = man", fillcolor="#e58139"] ;
488 -> 492 ;
493 [label="gini = 0.0\nsamples = 12\nvalue = [0, 12]\nclass = woman", fillcolor="#399de5"] ;
487 -> 493 ;
494 [label="wp00tbgs <= 1.432\ngini = 0.5\nsamples = 14\nvalue = [7, 7]\nclass = man", fillcolor="#ffffff"] ;
486 -> 494 ;
495 [label="a20 <= 0.5\ngini = 0.408\nsamples = 7\nvalue = [5, 2]\nclass = man", fillcolor="#efb388"] ;
494 -> 495 ;
496 [label="gini = 0.0\nsamples = 4\nvalue = [4, 0]\nclass = man", fillcolor="#e58139"] ;
495 -> 496 ;
497 [label="wp00tbgp <= 1506.474\ngini = 0.444\nsamples = 3\nvalue = [1, 2]\nclass = woman", fillcolor="#9ccef2"] ;
495 -> 497 ;
498 [label="gini = 0.0\nsamples = 2\nvalue = [0, 2]\nclass = woman", fillcolor="#399de5"] ;
497 -> 498 ;
499 [label="gini = 0.0\nsamples = 1\nvalue = [1, 0]\nclass = man", fillcolor="#e58139"] ;
497 -> 499 ;
500 [label="birthyr <= 1933.5\ngini = 0.408\nsamples = 7\nvalue = [2, 5]\nclass = woman", fillcolor="#88c4ef"] ;
494 -> 500 ;
501 [label="a28 <= 1.5\ngini = 0.278\nsamples = 6\nvalue = [1, 5]\nclass = woman", fillcolor="#61b1ea"] ;
500 -> 501 ;
502 [label="gini = 0.0\nsamples = 3\nvalue = [0, 3]\nclass = woman", fillcolor="#399de5"] ;
501 -> 502 ;
503 [label="wp00tbgp <= 1663.406\ngini = 0.444\nsamples = 3\nvalue = [1, 2]\nclass = woman", fillcolor="#9ccef2"] ;
501 -> 503 ;
504 [label="gini = 0.0\nsamples = 1\nvalue = [0, 1]\nclass = woman", fillcolor="#399de5"] ;
503 -> 504 ;
505 [label="wp00tbgp <= 1694.847\ngini = 0.5\nsamples = 2\nvalue = [1, 1]\nclass = man", fillcolor="#ffffff"] ;
503 -> 505 ;
506 [label="gini = 0.0\nsamples = 1\nvalue = [1, 0]\nclass = man", fillcolor="#e58139"] ;
505 -> 506 ;
507 [label="gini = 0.0\nsamples = 1\nvalue = [0, 1]\nclass = woman", fillcolor="#399de5"] ;
505 -> 507 ;
508 [label="gini = 0.0\nsamples = 1\nvalue = [1, 0]\nclass = man", fillcolor="#e58139"] ;
500 -> 508 ;
509 [label="gini = 0.0\nsamples = 3\nvalue = [3, 0]\nclass = man", fillcolor="#e58139"] ;
427 -> 509 ;
510 [label="wp00tbgs <= 1.327\ngini = 0.389\nsamples = 102\nvalue = [27, 75]\nclass = woman", fillcolor="#80c0ee"] ;
420 -> 510 ;
511 [label="wp00tbgp <= 1311.362\ngini = 0.419\nsamples = 87\nvalue = [26, 61]\nclass = woman", fillcolor="#8dc7f0"] ;
510 -> 511 ;
512 [label="wp00tbgs <= 1.062\ngini = 0.344\nsamples = 59\nvalue = [13, 46]\nclass = woman", fillcolor="#71b9ec"] ;
511 -> 512 ;
513 [label="wp00tbgp <= 1124.971\ngini = 0.411\nsamples = 38\nvalue = [11, 27]\nclass = woman", fillcolor="#8ac5f0"] ;
512 -> 513 ;
514 [label="a19 <= 0.5\ngini = 0.231\nsamples = 15\nvalue = [2, 13]\nclass = woman", fillcolor="#57ace9"] ;
513 -> 514 ;
515 [label="a21 <= 0.5\ngini = 0.133\nsamples = 14\nvalue = [1, 13]\nclass = woman", fillcolor="#48a5e7"] ;
514 -> 515 ;
516 [label="gini = 0.0\nsamples = 10\nvalue = [0, 10]\nclass = woman", fillcolor="#399de5"] ;
515 -> 516 ;
517 [label="wp00tbgs <= 0.976\ngini = 0.375\nsamples = 4\nvalue = [1, 3]\nclass = woman", fillcolor="#7bbeee"] ;
515 -> 517 ;
518 [label="gini = 0.0\nsamples = 1\nvalue = [1, 0]\nclass = man", fillcolor="#e58139"] ;
517 -> 518 ;
519 [label="gini = 0.0\nsamples = 3\nvalue = [0, 3]\nclass = woman", fillcolor="#399de5"] ;
517 -> 519 ;
520 [label="gini = 0.0\nsamples = 1\nvalue = [1, 0]\nclass = man", fillcolor="#e58139"] ;
514 -> 520 ;
521 [label="a22 <= 0.5\ngini = 0.476\nsamples = 23\nvalue = [9, 14]\nclass = woman", fillcolor="#b8dcf6"] ;
513 -> 521 ;
522 [label="birthyr <= 1938.5\ngini = 0.498\nsamples = 17\nvalue = [9, 8]\nclass = man", fillcolor="#fcf1e9"] ;
521 -> 522 ;
523 [label="a25 <= 2.0\ngini = 0.463\nsamples = 11\nvalue = [4, 7]\nclass = woman", fillcolor="#aad5f4"] ;
522 -> 523 ;
524 [label="birthyr <= 1934.0\ngini = 0.444\nsamples = 6\nvalue = [4, 2]\nclass = man", fillcolor="#f2c09c"] ;
523 -> 524 ;
525 [label="gini = 0.0\nsamples = 4\nvalue = [4, 0]\nclass = man", fillcolor="#e58139"] ;
524 -> 525 ;
526 [label="gini = 0.0\nsamples = 2\nvalue = [0, 2]\nclass = woman", fillcolor="#399de5"] ;
524 -> 526 ;
527 [label="gini = 0.0\nsamples = 5\nvalue = [0, 5]\nclass = woman", fillcolor="#399de5"] ;
523 -> 527 ;
528 [label="wp00tbgs <= 1.022\ngini = 0.278\nsamples = 6\nvalue = [5, 1]\nclass = man", fillcolor="#ea9a61"] ;
522 -> 528 ;
529 [label="gini = 0.0\nsamples = 4\nvalue = [4, 0]\nclass = man", fillcolor="#e58139"] ;
528 -> 529 ;
530 [label="a27 <= 2.0\ngini = 0.5\nsamples = 2\nvalue = [1, 1]\nclass = man", fillcolor="#ffffff"] ;
528 -> 530 ;
531 [label="gini = 0.0\nsamples = 1\nvalue = [1, 0]\nclass = man", fillcolor="#e58139"] ;
530 -> 531 ;
532 [label="gini = 0.0\nsamples = 1\nvalue = [0, 1]\nclass = woman", fillcolor="#399de5"] ;
530 -> 532 ;
533 [label="gini = 0.0\nsamples = 6\nvalue = [0, 6]\nclass = woman", fillcolor="#399de5"] ;
521 -> 533 ;
534 [label="a28 <= 4.5\ngini = 0.172\nsamples = 21\nvalue = [2, 19]\nclass = woman", fillcolor="#4ea7e8"] ;
512 -> 534 ;
535 [label="gini = 0.0\nsamples = 11\nvalue = [0, 11]\nclass = woman", fillcolor="#399de5"] ;
534 -> 535 ;
536 [label="a26 <= 2.0\ngini = 0.32\nsamples = 10\nvalue = [2, 8]\nclass = woman", fillcolor="#6ab6ec"] ;
534 -> 536 ;
537 [label="gini = 0.0\nsamples = 3\nvalue = [0, 3]\nclass = woman", fillcolor="#399de5"] ;
536 -> 537 ;
538 [label="wp00tbgs <= 1.081\ngini = 0.408\nsamples = 7\nvalue = [2, 5]\nclass = woman", fillcolor="#88c4ef"] ;
536 -> 538 ;
539 [label="gini = 0.0\nsamples = 1\nvalue = [1, 0]\nclass = man", fillcolor="#e58139"] ;
538 -> 539 ;
540 [label="birthyr <= 1931.0\ngini = 0.278\nsamples = 6\nvalue = [1, 5]\nclass = woman", fillcolor="#61b1ea"] ;
538 -> 540 ;
541 [label="wp00tbgs <= 1.123\ngini = 0.5\nsamples = 2\nvalue = [1, 1]\nclass = man", fillcolor="#ffffff"] ;
540 -> 541 ;
542 [label="gini = 0.0\nsamples = 1\nvalue = [0, 1]\nclass = woman", fillcolor="#399de5"] ;
541 -> 542 ;
543 [label="gini = 0.0\nsamples = 1\nvalue = [1, 0]\nclass = man", fillcolor="#e58139"] ;
541 -> 543 ;
544 [label="gini = 0.0\nsamples = 4\nvalue = [0, 4]\nclass = woman", fillcolor="#399de5"] ;
540 -> 544 ;
545 [label="birthyr <= 1934.5\ngini = 0.497\nsamples = 28\nvalue = [13, 15]\nclass = woman", fillcolor="#e5f2fc"] ;
511 -> 545 ;
546 [label="a27 <= 1.5\ngini = 0.469\nsamples = 16\nvalue = [10, 6]\nclass = man", fillcolor="#f5cdb0"] ;
545 -> 546 ;
547 [label="gini = 0.0\nsamples = 3\nvalue = [0, 3]\nclass = woman", fillcolor="#399de5"] ;
546 -> 547 ;
548 [label="wp00tbgp <= 1478.313\ngini = 0.355\nsamples = 13\nvalue = [10, 3]\nclass = man", fillcolor="#eda774"] ;
546 -> 548 ;
549 [label="wp00tbgs <= 1.179\ngini = 0.18\nsamples = 10\nvalue = [9, 1]\nclass = man", fillcolor="#e88f4f"] ;
548 -> 549 ;
550 [label="a30 <= 4.5\ngini = 0.5\nsamples = 2\nvalue = [1, 1]\nclass = man", fillcolor="#ffffff"] ;
549 -> 550 ;
551 [label="gini = 0.0\nsamples = 1\nvalue = [0, 1]\nclass = woman", fillcolor="#399de5"] ;
550 -> 551 ;
552 [label="gini = 0.0\nsamples = 1\nvalue = [1, 0]\nclass = man", fillcolor="#e58139"] ;
550 -> 552 ;
553 [label="gini = 0.0\nsamples = 8\nvalue = [8, 0]\nclass = man", fillcolor="#e58139"] ;
549 -> 553 ;
554 [label="a28 <= 6.5\ngini = 0.444\nsamples = 3\nvalue = [1, 2]\nclass = woman", fillcolor="#9ccef2"] ;
548 -> 554 ;
555 [label="gini = 0.0\nsamples = 2\nvalue = [0, 2]\nclass = woman", fillcolor="#399de5"] ;
554 -> 555 ;
556 [label="gini = 0.0\nsamples = 1\nvalue = [1, 0]\nclass = man", fillcolor="#e58139"] ;
554 -> 556 ;
557 [label="wp00tbgp <= 1360.068\ngini = 0.375\nsamples = 12\nvalue = [3, 9]\nclass = woman", fillcolor="#7bbeee"] ;
545 -> 557 ;
558 [label="birthyr <= 1936.0\ngini = 0.444\nsamples = 3\nvalue = [2, 1]\nclass = man", fillcolor="#f2c09c"] ;
557 -> 558 ;
559 [label="gini = 0.0\nsamples = 1\nvalue = [0, 1]\nclass = woman", fillcolor="#399de5"] ;
558 -> 559 ;
560 [label="gini = 0.0\nsamples = 2\nvalue = [2, 0]\nclass = man", fillcolor="#e58139"] ;
558 -> 560 ;
561 [label="wp00tbgs <= 1.307\ngini = 0.198\nsamples = 9\nvalue = [1, 8]\nclass = woman", fillcolor="#52a9e8"] ;
557 -> 561 ;
562 [label="gini = 0.0\nsamples = 8\nvalue = [0, 8]\nclass = woman", fillcolor="#399de5"] ;
561 -> 562 ;
563 [label="gini = 0.0\nsamples = 1\nvalue = [1, 0]\nclass = man", fillcolor="#e58139"] ;
561 -> 563 ;
564 [label="birthyr <= 1944.5\ngini = 0.124\nsamples = 15\nvalue = [1, 14]\nclass = woman", fillcolor="#47a4e7"] ;
510 -> 564 ;
565 [label="gini = 0.0\nsamples = 14\nvalue = [0, 14]\nclass = woman", fillcolor="#399de5"] ;
564 -> 565 ;
566 [label="gini = 0.0\nsamples = 1\nvalue = [1, 0]\nclass = man", fillcolor="#e58139"] ;
564 -> 566 ;
567 [label="birthyr <= 1928.5\ngini = 0.499\nsamples = 122\nvalue = [64, 58]\nclass = man", fillcolor="#fdf3ec"] ;
377 -> 567 ;
568 [label="a30 <= 4.5\ngini = 0.463\nsamples = 33\nvalue = [12, 21]\nclass = woman", fillcolor="#aad5f4"] ;
567 -> 568 ;
569 [label="a29 <= 0.5\ngini = 0.499\nsamples = 25\nvalue = [12, 13]\nclass = woman", fillcolor="#f0f7fd"] ;
568 -> 569 ;
570 [label="birthyr <= 1920.5\ngini = 0.375\nsamples = 12\nvalue = [3, 9]\nclass = woman", fillcolor="#7bbeee"] ;
569 -> 570 ;
571 [label="wp00tbgp <= 2528.428\ngini = 0.48\nsamples = 5\nvalue = [3, 2]\nclass = man", fillcolor="#f6d5bd"] ;
570 -> 571 ;
572 [label="gini = 0.0\nsamples = 3\nvalue = [3, 0]\nclass = man", fillcolor="#e58139"] ;
571 -> 572 ;
573 [label="gini = 0.0\nsamples = 2\nvalue = [0, 2]\nclass = woman", fillcolor="#399de5"] ;
571 -> 573 ;
574 [label="gini = 0.0\nsamples = 7\nvalue = [0, 7]\nclass = woman", fillcolor="#399de5"] ;
570 -> 574 ;
575 [label="a18 <= 0.5\ngini = 0.426\nsamples = 13\nvalue = [9, 4]\nclass = man", fillcolor="#f1b991"] ;
569 -> 575 ;
576 [label="a25 <= 1.5\ngini = 0.375\nsamples = 12\nvalue = [9, 3]\nclass = man", fillcolor="#eeab7b"] ;
575 -> 576 ;
577 [label="wp00tbgp <= 2372.069\ngini = 0.198\nsamples = 9\nvalue = [8, 1]\nclass = man", fillcolor="#e89152"] ;
576 -> 577 ;
578 [label="gini = 0.0\nsamples = 7\nvalue = [7, 0]\nclass = man", fillcolor="#e58139"] ;
577 -> 578 ;
579 [label="a29 <= 1.5\ngini = 0.5\nsamples = 2\nvalue = [1, 1]\nclass = man", fillcolor="#ffffff"] ;
577 -> 579 ;
580 [label="gini = 0.0\nsamples = 1\nvalue = [1, 0]\nclass = man", fillcolor="#e58139"] ;
579 -> 580 ;
581 [label="gini = 0.0\nsamples = 1\nvalue = [0, 1]\nclass = woman", fillcolor="#399de5"] ;
579 -> 581 ;
582 [label="wp00tbgs <= 2.115\ngini = 0.444\nsamples = 3\nvalue = [1, 2]\nclass = woman", fillcolor="#9ccef2"] ;
576 -> 582 ;
583 [label="gini = 0.0\nsamples = 2\nvalue = [0, 2]\nclass = woman", fillcolor="#399de5"] ;
582 -> 583 ;
584 [label="gini = 0.0\nsamples = 1\nvalue = [1, 0]\nclass = man", fillcolor="#e58139"] ;
582 -> 584 ;
585 [label="gini = 0.0\nsamples = 1\nvalue = [0, 1]\nclass = woman", fillcolor="#399de5"] ;
575 -> 585 ;
586 [label="gini = 0.0\nsamples = 8\nvalue = [0, 8]\nclass = woman", fillcolor="#399de5"] ;
568 -> 586 ;
587 [label="a30 <= 0.5\ngini = 0.486\nsamples = 89\nvalue = [52, 37]\nclass = man", fillcolor="#f8dbc6"] ;
567 -> 587 ;
588 [label="wp00tbgs <= 1.768\ngini = 0.491\nsamples = 23\nvalue = [10, 13]\nclass = woman", fillcolor="#d1e8f9"] ;
587 -> 588 ;
589 [label="wp00tbgp <= 1868.055\ngini = 0.278\nsamples = 6\nvalue = [5, 1]\nclass = man", fillcolor="#ea9a61"] ;
588 -> 589 ;
590 [label="wp00tbgp <= 1817.566\ngini = 0.5\nsamples = 2\nvalue = [1, 1]\nclass = man", fillcolor="#ffffff"] ;
589 -> 590 ;
591 [label="gini = 0.0\nsamples = 1\nvalue = [1, 0]\nclass = man", fillcolor="#e58139"] ;
590 -> 591 ;
592 [label="gini = 0.0\nsamples = 1\nvalue = [0, 1]\nclass = woman", fillcolor="#399de5"] ;
590 -> 592 ;
593 [label="gini = 0.0\nsamples = 4\nvalue = [4, 0]\nclass = man", fillcolor="#e58139"] ;
589 -> 593 ;
594 [label="birthyr <= 1936.5\ngini = 0.415\nsamples = 17\nvalue = [5, 12]\nclass = woman", fillcolor="#8bc6f0"] ;
588 -> 594 ;
595 [label="birthyr <= 1932.0\ngini = 0.5\nsamples = 6\nvalue = [3, 3]\nclass = man", fillcolor="#ffffff"] ;
594 -> 595 ;
596 [label="gini = 0.0\nsamples = 2\nvalue = [0, 2]\nclass = woman", fillcolor="#399de5"] ;
595 -> 596 ;
597 [label="wp00tbgp <= 3267.56\ngini = 0.375\nsamples = 4\nvalue = [3, 1]\nclass = man", fillcolor="#eeab7b"] ;
595 -> 597 ;
598 [label="gini = 0.0\nsamples = 2\nvalue = [2, 0]\nclass = man", fillcolor="#e58139"] ;
597 -> 598 ;
599 [label="birthyr <= 1934.5\ngini = 0.5\nsamples = 2\nvalue = [1, 1]\nclass = man", fillcolor="#ffffff"] ;
597 -> 599 ;
600 [label="gini = 0.0\nsamples = 1\nvalue = [0, 1]\nclass = woman", fillcolor="#399de5"] ;
599 -> 600 ;
601 [label="gini = 0.0\nsamples = 1\nvalue = [1, 0]\nclass = man", fillcolor="#e58139"] ;
599 -> 601 ;
602 [label="wp00tbgp <= 2211.424\ngini = 0.298\nsamples = 11\nvalue = [2, 9]\nclass = woman", fillcolor="#65b3eb"] ;
594 -> 602 ;
603 [label="gini = 0.0\nsamples = 6\nvalue = [0, 6]\nclass = woman", fillcolor="#399de5"] ;
602 -> 603 ;
604 [label="wp00tbgs <= 3.188\ngini = 0.48\nsamples = 5\nvalue = [2, 3]\nclass = woman", fillcolor="#bddef6"] ;
602 -> 604 ;
605 [label="birthyr <= 1939.0\ngini = 0.444\nsamples = 3\nvalue = [2, 1]\nclass = man", fillcolor="#f2c09c"] ;
604 -> 605 ;
606 [label="gini = 0.0\nsamples = 1\nvalue = [0, 1]\nclass = woman", fillcolor="#399de5"] ;
605 -> 606 ;
607 [label="gini = 0.0\nsamples = 2\nvalue = [2, 0]\nclass = man", fillcolor="#e58139"] ;
605 -> 607 ;
608 [label="gini = 0.0\nsamples = 2\nvalue = [0, 2]\nclass = woman", fillcolor="#399de5"] ;
604 -> 608 ;
609 [label="birthyr <= 1943.5\ngini = 0.463\nsamples = 66\nvalue = [42, 24]\nclass = man", fillcolor="#f4c9aa"] ;
587 -> 609 ;
610 [label="birthyr <= 1930.5\ngini = 0.483\nsamples = 59\nvalue = [35, 24]\nclass = man", fillcolor="#f7d7c1"] ;
609 -> 610 ;
611 [label="gini = 0.0\nsamples = 5\nvalue = [5, 0]\nclass = man", fillcolor="#e58139"] ;
610 -> 611 ;
612 [label="a29 <= 0.5\ngini = 0.494\nsamples = 54\nvalue = [30, 24]\nclass = man", fillcolor="#fae6d7"] ;
610 -> 612 ;
613 [label="gini = 0.0\nsamples = 4\nvalue = [4, 0]\nclass = man", fillcolor="#e58139"] ;
612 -> 613 ;
614 [label="a27 <= 0.5\ngini = 0.499\nsamples = 50\nvalue = [26, 24]\nclass = man", fillcolor="#fdf5f0"] ;
612 -> 614 ;
615 [label="wp00tbgp <= 1789.355\ngini = 0.346\nsamples = 9\nvalue = [2, 7]\nclass = woman", fillcolor="#72b9ec"] ;
614 -> 615 ;
616 [label="gini = 0.0\nsamples = 1\nvalue = [1, 0]\nclass = man", fillcolor="#e58139"] ;
615 -> 616 ;
617 [label="a29 <= 4.5\ngini = 0.219\nsamples = 8\nvalue = [1, 7]\nclass = woman", fillcolor="#55abe9"] ;
615 -> 617 ;
618 [label="gini = 0.0\nsamples = 6\nvalue = [0, 6]\nclass = woman", fillcolor="#399de5"] ;
617 -> 618 ;
619 [label="a28 <= 4.5\ngini = 0.5\nsamples = 2\nvalue = [1, 1]\nclass = man", fillcolor="#ffffff"] ;
617 -> 619 ;
620 [label="gini = 0.0\nsamples = 1\nvalue = [1, 0]\nclass = man", fillcolor="#e58139"] ;
619 -> 620 ;
621 [label="gini = 0.0\nsamples = 1\nvalue = [0, 1]\nclass = woman", fillcolor="#399de5"] ;
619 -> 621 ;
622 [label="wp00tbgs <= 1.566\ngini = 0.485\nsamples = 41\nvalue = [24, 17]\nclass = man", fillcolor="#f7dac5"] ;
614 -> 622 ;
623 [label="gini = 0.0\nsamples = 2\nvalue = [0, 2]\nclass = woman", fillcolor="#399de5"] ;
622 -> 623 ;
624 [label="wp00tbgp <= 1869.183\ngini = 0.473\nsamples = 39\nvalue = [24, 15]\nclass = man", fillcolor="#f5d0b5"] ;
622 -> 624 ;
625 [label="a22 <= 0.5\ngini = 0.219\nsamples = 8\nvalue = [7, 1]\nclass = man", fillcolor="#e99355"] ;
624 -> 625 ;
626 [label="gini = 0.0\nsamples = 6\nvalue = [6, 0]\nclass = man", fillcolor="#e58139"] ;
625 -> 626 ;
627 [label="birthyr <= 1935.5\ngini = 0.5\nsamples = 2\nvalue = [1, 1]\nclass = man", fillcolor="#ffffff"] ;
625 -> 627 ;
628 [label="gini = 0.0\nsamples = 1\nvalue = [1, 0]\nclass = man", fillcolor="#e58139"] ;
627 -> 628 ;
629 [label="gini = 0.0\nsamples = 1\nvalue = [0, 1]\nclass = woman", fillcolor="#399de5"] ;
627 -> 629 ;
630 [label="birthyr <= 1937.5\ngini = 0.495\nsamples = 31\nvalue = [17, 14]\nclass = man", fillcolor="#fae9dc"] ;
624 -> 630 ;
631 [label="a20 <= 0.5\ngini = 0.444\nsamples = 9\nvalue = [3, 6]\nclass = woman", fillcolor="#9ccef2"] ;
630 -> 631 ;
632 [label="gini = 0.0\nsamples = 5\nvalue = [0, 5]\nclass = woman", fillcolor="#399de5"] ;
631 -> 632 ;
633 [label="a27 <= 4.5\ngini = 0.375\nsamples = 4\nvalue = [3, 1]\nclass = man", fillcolor="#eeab7b"] ;
631 -> 633 ;
634 [label="gini = 0.0\nsamples = 3\nvalue = [3, 0]\nclass = man", fillcolor="#e58139"] ;
633 -> 634 ;
635 [label="gini = 0.0\nsamples = 1\nvalue = [0, 1]\nclass = woman", fillcolor="#399de5"] ;
633 -> 635 ;
636 [label="a25 <= 2.5\ngini = 0.463\nsamples = 22\nvalue = [14, 8]\nclass = man", fillcolor="#f4c9aa"] ;
630 -> 636 ;
637 [label="a30 <= 1.5\ngini = 0.401\nsamples = 18\nvalue = [13, 5]\nclass = man", fillcolor="#efb185"] ;
636 -> 637 ;
638 [label="wp00tbgp <= 2258.519\ngini = 0.444\nsamples = 3\nvalue = [1, 2]\nclass = woman", fillcolor="#9ccef2"] ;
637 -> 638 ;
639 [label="gini = 0.0\nsamples = 1\nvalue = [1, 0]\nclass = man", fillcolor="#e58139"] ;
638 -> 639 ;
640 [label="gini = 0.0\nsamples = 2\nvalue = [0, 2]\nclass = woman", fillcolor="#399de5"] ;
638 -> 640 ;
641 [label="a20 <= 0.5\ngini = 0.32\nsamples = 15\nvalue = [12, 3]\nclass = man", fillcolor="#eca06a"] ;
637 -> 641 ;
642 [label="gini = 0.0\nsamples = 7\nvalue = [7, 0]\nclass = man", fillcolor="#e58139"] ;
641 -> 642 ;
643 [label="wp00tbgs <= 1.836\ngini = 0.469\nsamples = 8\nvalue = [5, 3]\nclass = man", fillcolor="#f5cdb0"] ;
641 -> 643 ;
644 [label="gini = 0.0\nsamples = 3\nvalue = [3, 0]\nclass = man", fillcolor="#e58139"] ;
643 -> 644 ;
645 [label="a27 <= 4.5\ngini = 0.48\nsamples = 5\nvalue = [2, 3]\nclass = woman", fillcolor="#bddef6"] ;
643 -> 645 ;
646 [label="gini = 0.0\nsamples = 2\nvalue = [0, 2]\nclass = woman", fillcolor="#399de5"] ;
645 -> 646 ;
647 [label="wp00tbgs <= 1.946\ngini = 0.444\nsamples = 3\nvalue = [2, 1]\nclass = man", fillcolor="#f2c09c"] ;
645 -> 647 ;
648 [label="gini = 0.0\nsamples = 1\nvalue = [0, 1]\nclass = woman", fillcolor="#399de5"] ;
647 -> 648 ;
649 [label="gini = 0.0\nsamples = 2\nvalue = [2, 0]\nclass = man", fillcolor="#e58139"] ;
647 -> 649 ;
650 [label="a20 <= 0.5\ngini = 0.375\nsamples = 4\nvalue = [1, 3]\nclass = woman", fillcolor="#7bbeee"] ;
636 -> 650 ;
651 [label="gini = 0.0\nsamples = 3\nvalue = [0, 3]\nclass = woman", fillcolor="#399de5"] ;
650 -> 651 ;
652 [label="gini = 0.0\nsamples = 1\nvalue = [1, 0]\nclass = man", fillcolor="#e58139"] ;
650 -> 652 ;
653 [label="gini = 0.0\nsamples = 7\nvalue = [7, 0]\nclass = man", fillcolor="#e58139"] ;
609 -> 653 ;
654 [label="a30 <= 4.5\ngini = 0.227\nsamples = 23\nvalue = [3, 20]\nclass = woman", fillcolor="#57ace9"] ;
338 -> 654 ;
655 [label="wp00tbgs <= 0.919\ngini = 0.375\nsamples = 12\nvalue = [3, 9]\nclass = woman", fillcolor="#7bbeee"] ;
654 -> 655 ;
656 [label="gini = 0.0\nsamples = 2\nvalue = [2, 0]\nclass = man", fillcolor="#e58139"] ;
655 -> 656 ;
657 [label="birthyr <= 1944.5\ngini = 0.18\nsamples = 10\nvalue = [1, 9]\nclass = woman", fillcolor="#4fa8e8"] ;
655 -> 657 ;
658 [label="gini = 0.0\nsamples = 7\nvalue = [0, 7]\nclass = woman", fillcolor="#399de5"] ;
657 -> 658 ;
659 [label="a29 <= 2.0\ngini = 0.444\nsamples = 3\nvalue = [1, 2]\nclass = woman", fillcolor="#9ccef2"] ;
657 -> 659 ;
660 [label="wp00tbgs <= 1.416\ngini = 0.5\nsamples = 2\nvalue = [1, 1]\nclass = man", fillcolor="#ffffff"] ;
659 -> 660 ;
661 [label="gini = 0.0\nsamples = 1\nvalue = [1, 0]\nclass = man", fillcolor="#e58139"] ;
660 -> 661 ;
662 [label="gini = 0.0\nsamples = 1\nvalue = [0, 1]\nclass = woman", fillcolor="#399de5"] ;
660 -> 662 ;
663 [label="gini = 0.0\nsamples = 1\nvalue = [0, 1]\nclass = woman", fillcolor="#399de5"] ;
659 -> 663 ;
664 [label="gini = 0.0\nsamples = 11\nvalue = [0, 11]\nclass = woman", fillcolor="#399de5"] ;
654 -> 664 ;
665 [label="wp00tbgs <= 1.322\ngini = 0.449\nsamples = 179\nvalue = [118, 61]\nclass = man", fillcolor="#f2c29f"] ;
337 -> 665 ;
666 [label="a19 <= 0.5\ngini = 0.497\nsamples = 110\nvalue = [59, 51]\nclass = man", fillcolor="#fbeee4"] ;
665 -> 666 ;
667 [label="a30 <= 1.5\ngini = 0.467\nsamples = 89\nvalue = [56, 33]\nclass = man", fillcolor="#f4cbae"] ;
666 -> 667 ;
668 [label="birthyr <= 1949.5\ngini = 0.498\nsamples = 49\nvalue = [26, 23]\nclass = man", fillcolor="#fcf0e8"] ;
667 -> 668 ;
669 [label="a24 <= 0.5\ngini = 0.36\nsamples = 17\nvalue = [13, 4]\nclass = man", fillcolor="#eda876"] ;
668 -> 669 ;
670 [label="wp00tbgs <= 0.97\ngini = 0.494\nsamples = 9\nvalue = [5, 4]\nclass = man", fillcolor="#fae6d7"] ;
669 -> 670 ;
671 [label="a28 <= 0.5\ngini = 0.375\nsamples = 4\nvalue = [1, 3]\nclass = woman", fillcolor="#7bbeee"] ;
670 -> 671 ;
672 [label="wp00tbgp <= 1039.344\ngini = 0.5\nsamples = 2\nvalue = [1, 1]\nclass = man", fillcolor="#ffffff"] ;
671 -> 672 ;
673 [label="gini = 0.0\nsamples = 1\nvalue = [1, 0]\nclass = man", fillcolor="#e58139"] ;
672 -> 673 ;
674 [label="gini = 0.0\nsamples = 1\nvalue = [0, 1]\nclass = woman", fillcolor="#399de5"] ;
672 -> 674 ;
675 [label="gini = 0.0\nsamples = 2\nvalue = [0, 2]\nclass = woman", fillcolor="#399de5"] ;
671 -> 675 ;
676 [label="wp00tbgp <= 1324.154\ngini = 0.32\nsamples = 5\nvalue = [4, 1]\nclass = man", fillcolor="#eca06a"] ;
670 -> 676 ;
677 [label="gini = 0.0\nsamples = 4\nvalue = [4, 0]\nclass = man", fillcolor="#e58139"] ;
676 -> 677 ;
678 [label="gini = 0.0\nsamples = 1\nvalue = [0, 1]\nclass = woman", fillcolor="#399de5"] ;
676 -> 678 ;
679 [label="gini = 0.0\nsamples = 8\nvalue = [8, 0]\nclass = man", fillcolor="#e58139"] ;
669 -> 679 ;
680 [label="wp00tbgs <= 1.204\ngini = 0.482\nsamples = 32\nvalue = [13, 19]\nclass = woman", fillcolor="#c0e0f7"] ;
668 -> 680 ;
681 [label="wp00tbgs <= 1.071\ngini = 0.495\nsamples = 29\nvalue = [13, 16]\nclass = woman", fillcolor="#daedfa"] ;
680 -> 681 ;
682 [label="wp00tbgp <= 1159.201\ngini = 0.434\nsamples = 22\nvalue = [7, 15]\nclass = woman", fillcolor="#95cbf1"] ;
681 -> 682 ;
683 [label="wp00tbgs <= 0.948\ngini = 0.492\nsamples = 16\nvalue = [7, 9]\nclass = woman", fillcolor="#d3e9f9"] ;
682 -> 683 ;
684 [label="birthyr <= 1955.5\ngini = 0.375\nsamples = 12\nvalue = [3, 9]\nclass = woman", fillcolor="#7bbeee"] ;
683 -> 684 ;
685 [label="a28 <= 0.5\ngini = 0.18\nsamples = 10\nvalue = [1, 9]\nclass = woman", fillcolor="#4fa8e8"] ;
684 -> 685 ;
686 [label="wp00tbgs <= 0.93\ngini = 0.5\nsamples = 2\nvalue = [1, 1]\nclass = man", fillcolor="#ffffff"] ;
685 -> 686 ;
687 [label="gini = 0.0\nsamples = 1\nvalue = [0, 1]\nclass = woman", fillcolor="#399de5"] ;
686 -> 687 ;
688 [label="gini = 0.0\nsamples = 1\nvalue = [1, 0]\nclass = man", fillcolor="#e58139"] ;
686 -> 688 ;
689 [label="gini = 0.0\nsamples = 8\nvalue = [0, 8]\nclass = woman", fillcolor="#399de5"] ;
685 -> 689 ;
690 [label="gini = 0.0\nsamples = 2\nvalue = [2, 0]\nclass = man", fillcolor="#e58139"] ;
684 -> 690 ;
691 [label="gini = 0.0\nsamples = 4\nvalue = [4, 0]\nclass = man", fillcolor="#e58139"] ;
683 -> 691 ;
692 [label="gini = 0.0\nsamples = 6\nvalue = [0, 6]\nclass = woman", fillcolor="#399de5"] ;
682 -> 692 ;
693 [label="birthyr <= 1953.5\ngini = 0.245\nsamples = 7\nvalue = [6, 1]\nclass = man", fillcolor="#e9965a"] ;
681 -> 693 ;
694 [label="a21 <= 0.5\ngini = 0.444\nsamples = 3\nvalue = [2, 1]\nclass = man", fillcolor="#f2c09c"] ;
693 -> 694 ;
695 [label="gini = 0.0\nsamples = 1\nvalue = [0, 1]\nclass = woman", fillcolor="#399de5"] ;
694 -> 695 ;
696 [label="gini = 0.0\nsamples = 2\nvalue = [2, 0]\nclass = man", fillcolor="#e58139"] ;
694 -> 696 ;
697 [label="gini = 0.0\nsamples = 4\nvalue = [4, 0]\nclass = man", fillcolor="#e58139"] ;
693 -> 697 ;
698 [label="gini = 0.0\nsamples = 3\nvalue = [0, 3]\nclass = woman", fillcolor="#399de5"] ;
680 -> 698 ;
699 [label="wp00tbgp <= 967.519\ngini = 0.375\nsamples = 40\nvalue = [30, 10]\nclass = man", fillcolor="#eeab7b"] ;
667 -> 699 ;
700 [label="gini = 0.0\nsamples = 1\nvalue = [0, 1]\nclass = woman", fillcolor="#399de5"] ;
699 -> 700 ;
701 [label="a24 <= 0.5\ngini = 0.355\nsamples = 39\nvalue = [30, 9]\nclass = man", fillcolor="#eda774"] ;
699 -> 701 ;
702 [label="wp00tbgp <= 1097.604\ngini = 0.18\nsamples = 20\nvalue = [18, 2]\nclass = man", fillcolor="#e88f4f"] ;
701 -> 702 ;
703 [label="wp00tbgp <= 1077.416\ngini = 0.346\nsamples = 9\nvalue = [7, 2]\nclass = man", fillcolor="#eca572"] ;
702 -> 703 ;
704 [label="gini = 0.0\nsamples = 7\nvalue = [7, 0]\nclass = man", fillcolor="#e58139"] ;
703 -> 704 ;
705 [label="gini = 0.0\nsamples = 2\nvalue = [0, 2]\nclass = woman", fillcolor="#399de5"] ;
703 -> 705 ;
706 [label="gini = 0.0\nsamples = 11\nvalue = [11, 0]\nclass = man", fillcolor="#e58139"] ;
702 -> 706 ;
707 [label="wp00tbgp <= 1110.76\ngini = 0.465\nsamples = 19\nvalue = [12, 7]\nclass = man", fillcolor="#f4caac"] ;
701 -> 707 ;
708 [label="a29 <= 5.5\ngini = 0.198\nsamples = 9\nvalue = [8, 1]\nclass = man", fillcolor="#e89152"] ;
707 -> 708 ;
709 [label="gini = 0.0\nsamples = 5\nvalue = [5, 0]\nclass = man", fillcolor="#e58139"] ;
708 -> 709 ;
710 [label="a25 <= 2.0\ngini = 0.375\nsamples = 4\nvalue = [3, 1]\nclass = man", fillcolor="#eeab7b"] ;
708 -> 710 ;
711 [label="gini = 0.0\nsamples = 1\nvalue = [0, 1]\nclass = woman", fillcolor="#399de5"] ;
710 -> 711 ;
712 [label="gini = 0.0\nsamples = 3\nvalue = [3, 0]\nclass = man", fillcolor="#e58139"] ;
710 -> 712 ;
713 [label="wp00tbgp <= 1163.344\ngini = 0.48\nsamples = 10\nvalue = [4, 6]\nclass = woman", fillcolor="#bddef6"] ;
707 -> 713 ;
714 [label="gini = 0.0\nsamples = 3\nvalue = [0, 3]\nclass = woman", fillcolor="#399de5"] ;
713 -> 714 ;
715 [label="wp00tbgs <= 1.112\ngini = 0.49\nsamples = 7\nvalue = [4, 3]\nclass = man", fillcolor="#f8e0ce"] ;
713 -> 715 ;
716 [label="gini = 0.0\nsamples = 3\nvalue = [3, 0]\nclass = man", fillcolor="#e58139"] ;
715 -> 716 ;
717 [label="a29 <= 4.5\ngini = 0.375\nsamples = 4\nvalue = [1, 3]\nclass = woman", fillcolor="#7bbeee"] ;
715 -> 717 ;
718 [label="gini = 0.0\nsamples = 3\nvalue = [0, 3]\nclass = woman", fillcolor="#399de5"] ;
717 -> 718 ;
719 [label="gini = 0.0\nsamples = 1\nvalue = [1, 0]\nclass = man", fillcolor="#e58139"] ;
717 -> 719 ;
720 [label="wp00tbgp <= 1352.103\ngini = 0.245\nsamples = 21\nvalue = [3, 18]\nclass = woman", fillcolor="#5aade9"] ;
666 -> 720 ;
721 [label="gini = 0.0\nsamples = 14\nvalue = [0, 14]\nclass = woman", fillcolor="#399de5"] ;
720 -> 721 ;
722 [label="wp00tbgs <= 1.267\ngini = 0.49\nsamples = 7\nvalue = [3, 4]\nclass = woman", fillcolor="#cee6f8"] ;
720 -> 722 ;
723 [label="gini = 0.0\nsamples = 3\nvalue = [3, 0]\nclass = man", fillcolor="#e58139"] ;
722 -> 723 ;
724 [label="gini = 0.0\nsamples = 4\nvalue = [0, 4]\nclass = woman", fillcolor="#399de5"] ;
722 -> 724 ;
725 [label="a20 <= 0.5\ngini = 0.248\nsamples = 69\nvalue = [59, 10]\nclass = man", fillcolor="#e9965b"] ;
665 -> 725 ;
726 [label="wp00tbgp <= 2065.315\ngini = 0.177\nsamples = 51\nvalue = [46, 5]\nclass = man", fillcolor="#e88f4f"] ;
725 -> 726 ;
727 [label="wp00tbgp <= 2013.784\ngini = 0.264\nsamples = 32\nvalue = [27, 5]\nclass = man", fillcolor="#ea985e"] ;
726 -> 727 ;
728 [label="a25 <= 1.5\ngini = 0.225\nsamples = 31\nvalue = [27, 4]\nclass = man", fillcolor="#e99456"] ;
727 -> 728 ;
729 [label="wp00tbgs <= 1.594\ngini = 0.083\nsamples = 23\nvalue = [22, 1]\nclass = man", fillcolor="#e68742"] ;
728 -> 729 ;
730 [label="gini = 0.0\nsamples = 19\nvalue = [19, 0]\nclass = man", fillcolor="#e58139"] ;
729 -> 730 ;
731 [label="wp00tbgp <= 1828.228\ngini = 0.375\nsamples = 4\nvalue = [3, 1]\nclass = man", fillcolor="#eeab7b"] ;
729 -> 731 ;
732 [label="gini = 0.0\nsamples = 1\nvalue = [0, 1]\nclass = woman", fillcolor="#399de5"] ;
731 -> 732 ;
733 [label="gini = 0.0\nsamples = 3\nvalue = [3, 0]\nclass = man", fillcolor="#e58139"] ;
731 -> 733 ;
734 [label="wp00tbgs <= 1.556\ngini = 0.469\nsamples = 8\nvalue = [5, 3]\nclass = man", fillcolor="#f5cdb0"] ;
728 -> 734 ;
735 [label="wp00tbgp <= 1616.823\ngini = 0.375\nsamples = 4\nvalue = [1, 3]\nclass = woman", fillcolor="#7bbeee"] ;
734 -> 735 ;
736 [label="wp00tbgs <= 1.372\ngini = 0.5\nsamples = 2\nvalue = [1, 1]\nclass = man", fillcolor="#ffffff"] ;
735 -> 736 ;
737 [label="gini = 0.0\nsamples = 1\nvalue = [0, 1]\nclass = woman", fillcolor="#399de5"] ;
736 -> 737 ;
738 [label="gini = 0.0\nsamples = 1\nvalue = [1, 0]\nclass = man", fillcolor="#e58139"] ;
736 -> 738 ;
739 [label="gini = 0.0\nsamples = 2\nvalue = [0, 2]\nclass = woman", fillcolor="#399de5"] ;
735 -> 739 ;
740 [label="gini = 0.0\nsamples = 4\nvalue = [4, 0]\nclass = man", fillcolor="#e58139"] ;
734 -> 740 ;
741 [label="gini = 0.0\nsamples = 1\nvalue = [0, 1]\nclass = woman", fillcolor="#399de5"] ;
727 -> 741 ;
742 [label="gini = 0.0\nsamples = 19\nvalue = [19, 0]\nclass = man", fillcolor="#e58139"] ;
726 -> 742 ;
743 [label="wp00tbgs <= 1.514\ngini = 0.401\nsamples = 18\nvalue = [13, 5]\nclass = man", fillcolor="#efb185"] ;
725 -> 743 ;
744 [label="birthyr <= 1954.5\ngini = 0.18\nsamples = 10\nvalue = [9, 1]\nclass = man", fillcolor="#e88f4f"] ;
743 -> 744 ;
745 [label="gini = 0.0\nsamples = 6\nvalue = [6, 0]\nclass = man", fillcolor="#e58139"] ;
744 -> 745 ;
746 [label="a30 <= 4.5\ngini = 0.375\nsamples = 4\nvalue = [3, 1]\nclass = man", fillcolor="#eeab7b"] ;
744 -> 746 ;
747 [label="gini = 0.0\nsamples = 2\nvalue = [2, 0]\nclass = man", fillcolor="#e58139"] ;
746 -> 747 ;
748 [label="a28 <= 3.5\ngini = 0.5\nsamples = 2\nvalue = [1, 1]\nclass = man", fillcolor="#ffffff"] ;
746 -> 748 ;
749 [label="gini = 0.0\nsamples = 1\nvalue = [0, 1]\nclass = woman", fillcolor="#399de5"] ;
748 -> 749 ;
750 [label="gini = 0.0\nsamples = 1\nvalue = [1, 0]\nclass = man", fillcolor="#e58139"] ;
748 -> 750 ;
751 [label="birthyr <= 1953.5\ngini = 0.5\nsamples = 8\nvalue = [4, 4]\nclass = man", fillcolor="#ffffff"] ;
743 -> 751 ;
752 [label="a18 <= 0.5\ngini = 0.444\nsamples = 6\nvalue = [4, 2]\nclass = man", fillcolor="#f2c09c"] ;
751 -> 752 ;
753 [label="a19 <= 0.5\ngini = 0.444\nsamples = 3\nvalue = [1, 2]\nclass = woman", fillcolor="#9ccef2"] ;
752 -> 753 ;
754 [label="gini = 0.0\nsamples = 1\nvalue = [1, 0]\nclass = man", fillcolor="#e58139"] ;
753 -> 754 ;
755 [label="gini = 0.0\nsamples = 2\nvalue = [0, 2]\nclass = woman", fillcolor="#399de5"] ;
753 -> 755 ;
756 [label="gini = 0.0\nsamples = 3\nvalue = [3, 0]\nclass = man", fillcolor="#e58139"] ;
752 -> 756 ;
757 [label="gini = 0.0\nsamples = 2\nvalue = [0, 2]\nclass = woman", fillcolor="#399de5"] ;
751 -> 757 ;
758 [label="a21 <= 1.5\ngini = 0.425\nsamples = 752\nvalue = [230, 522]\nclass = woman", fillcolor="#90c8f0"] ;
0 -> 758 [labeldistance=2.5, labelangle=-45, headlabel="False"] ;
759 [label="wp00tbgs <= 0.667\ngini = 0.46\nsamples = 502\nvalue = [180, 322]\nclass = woman", fillcolor="#a8d4f4"] ;
758 -> 759 ;
760 [label="a30 <= 6.5\ngini = 0.29\nsamples = 91\nvalue = [16, 75]\nclass = woman", fillcolor="#63b2eb"] ;
759 -> 760 ;
761 [label="wp00tbgp <= 272.814\ngini = 0.242\nsamples = 85\nvalue = [12, 73]\nclass = woman", fillcolor="#5aade9"] ;
760 -> 761 ;
762 [label="a24 <= 4.5\ngini = 0.426\nsamples = 13\nvalue = [4, 9]\nclass = woman", fillcolor="#91c9f1"] ;
761 -> 762 ;
763 [label="gini = 0.0\nsamples = 7\nvalue = [0, 7]\nclass = woman", fillcolor="#399de5"] ;
762 -> 763 ;
764 [label="a22 <= 0.5\ngini = 0.444\nsamples = 6\nvalue = [4, 2]\nclass = man", fillcolor="#f2c09c"] ;
762 -> 764 ;
765 [label="birthyr <= 1942.5\ngini = 0.444\nsamples = 3\nvalue = [1, 2]\nclass = woman", fillcolor="#9ccef2"] ;
764 -> 765 ;
766 [label="a23 <= 4.5\ngini = 0.5\nsamples = 2\nvalue = [1, 1]\nclass = man", fillcolor="#ffffff"] ;
765 -> 766 ;
767 [label="gini = 0.0\nsamples = 1\nvalue = [0, 1]\nclass = woman", fillcolor="#399de5"] ;
766 -> 767 ;
768 [label="gini = 0.0\nsamples = 1\nvalue = [1, 0]\nclass = man", fillcolor="#e58139"] ;
766 -> 768 ;
769 [label="gini = 0.0\nsamples = 1\nvalue = [0, 1]\nclass = woman", fillcolor="#399de5"] ;
765 -> 769 ;
770 [label="gini = 0.0\nsamples = 3\nvalue = [3, 0]\nclass = man", fillcolor="#e58139"] ;
764 -> 770 ;
771 [label="birthyr <= 1940.5\ngini = 0.198\nsamples = 72\nvalue = [8, 64]\nclass = woman", fillcolor="#52a9e8"] ;
761 -> 771 ;
772 [label="gini = 0.0\nsamples = 1\nvalue = [1, 0]\nclass = man", fillcolor="#e58139"] ;
771 -> 772 ;
773 [label="a19 <= 0.5\ngini = 0.178\nsamples = 71\nvalue = [7, 64]\nclass = woman", fillcolor="#4fa8e8"] ;
771 -> 773 ;
774 [label="wp00tbgp <= 697.326\ngini = 0.237\nsamples = 51\nvalue = [7, 44]\nclass = woman", fillcolor="#58ade9"] ;
773 -> 774 ;
775 [label="a22 <= 0.5\ngini = 0.149\nsamples = 37\nvalue = [3, 34]\nclass = woman", fillcolor="#4aa6e7"] ;
774 -> 775 ;
776 [label="a25 <= 4.5\ngini = 0.211\nsamples = 25\nvalue = [3, 22]\nclass = woman", fillcolor="#54aae9"] ;
775 -> 776 ;
777 [label="birthyr <= 1949.0\ngini = 0.1\nsamples = 19\nvalue = [1, 18]\nclass = woman", fillcolor="#44a2e6"] ;
776 -> 777 ;
778 [label="wp00tbgs <= 0.562\ngini = 0.245\nsamples = 7\nvalue = [1, 6]\nclass = woman", fillcolor="#5aade9"] ;
777 -> 778 ;
779 [label="gini = 0.0\nsamples = 4\nvalue = [0, 4]\nclass = woman", fillcolor="#399de5"] ;
778 -> 779 ;
780 [label="a29 <= 2.5\ngini = 0.444\nsamples = 3\nvalue = [1, 2]\nclass = woman", fillcolor="#9ccef2"] ;
778 -> 780 ;
781 [label="gini = 0.0\nsamples = 2\nvalue = [0, 2]\nclass = woman", fillcolor="#399de5"] ;
780 -> 781 ;
782 [label="gini = 0.0\nsamples = 1\nvalue = [1, 0]\nclass = man", fillcolor="#e58139"] ;
780 -> 782 ;
783 [label="gini = 0.0\nsamples = 12\nvalue = [0, 12]\nclass = woman", fillcolor="#399de5"] ;
777 -> 783 ;
784 [label="a23 <= 0.5\ngini = 0.444\nsamples = 6\nvalue = [2, 4]\nclass = woman", fillcolor="#9ccef2"] ;
776 -> 784 ;
785 [label="gini = 0.0\nsamples = 3\nvalue = [0, 3]\nclass = woman", fillcolor="#399de5"] ;
784 -> 785 ;
786 [label="a23 <= 2.0\ngini = 0.444\nsamples = 3\nvalue = [2, 1]\nclass = man", fillcolor="#f2c09c"] ;
784 -> 786 ;
787 [label="gini = 0.0\nsamples = 2\nvalue = [2, 0]\nclass = man", fillcolor="#e58139"] ;
786 -> 787 ;
788 [label="gini = 0.0\nsamples = 1\nvalue = [0, 1]\nclass = woman", fillcolor="#399de5"] ;
786 -> 788 ;
789 [label="gini = 0.0\nsamples = 12\nvalue = [0, 12]\nclass = woman", fillcolor="#399de5"] ;
775 -> 789 ;
790 [label="a30 <= 4.5\ngini = 0.408\nsamples = 14\nvalue = [4, 10]\nclass = woman", fillcolor="#88c4ef"] ;
774 -> 790 ;
791 [label="a22 <= 2.0\ngini = 0.444\nsamples = 3\nvalue = [2, 1]\nclass = man", fillcolor="#f2c09c"] ;
790 -> 791 ;
792 [label="gini = 0.0\nsamples = 2\nvalue = [2, 0]\nclass = man", fillcolor="#e58139"] ;
791 -> 792 ;
793 [label="gini = 0.0\nsamples = 1\nvalue = [0, 1]\nclass = woman", fillcolor="#399de5"] ;
791 -> 793 ;
794 [label="wp00tbgp <= 701.862\ngini = 0.298\nsamples = 11\nvalue = [2, 9]\nclass = woman", fillcolor="#65b3eb"] ;
790 -> 794 ;
795 [label="gini = 0.0\nsamples = 1\nvalue = [1, 0]\nclass = man", fillcolor="#e58139"] ;
794 -> 795 ;
796 [label="a26 <= 4.5\ngini = 0.18\nsamples = 10\nvalue = [1, 9]\nclass = woman", fillcolor="#4fa8e8"] ;
794 -> 796 ;
797 [label="birthyr <= 1950.0\ngini = 0.375\nsamples = 4\nvalue = [1, 3]\nclass = woman", fillcolor="#7bbeee"] ;
796 -> 797 ;
798 [label="gini = 0.0\nsamples = 2\nvalue = [0, 2]\nclass = woman", fillcolor="#399de5"] ;
797 -> 798 ;
799 [label="wp00tbgp <= 714.033\ngini = 0.5\nsamples = 2\nvalue = [1, 1]\nclass = man", fillcolor="#ffffff"] ;
797 -> 799 ;
800 [label="gini = 0.0\nsamples = 1\nvalue = [0, 1]\nclass = woman", fillcolor="#399de5"] ;
799 -> 800 ;
801 [label="gini = 0.0\nsamples = 1\nvalue = [1, 0]\nclass = man", fillcolor="#e58139"] ;
799 -> 801 ;
802 [label="gini = 0.0\nsamples = 6\nvalue = [0, 6]\nclass = woman", fillcolor="#399de5"] ;
796 -> 802 ;
803 [label="gini = 0.0\nsamples = 20\nvalue = [0, 20]\nclass = woman", fillcolor="#399de5"] ;
773 -> 803 ;
804 [label="wp00tbgs <= 0.553\ngini = 0.444\nsamples = 6\nvalue = [4, 2]\nclass = man", fillcolor="#f2c09c"] ;
760 -> 804 ;
805 [label="gini = 0.0\nsamples = 4\nvalue = [4, 0]\nclass = man", fillcolor="#e58139"] ;
804 -> 805 ;
806 [label="gini = 0.0\nsamples = 2\nvalue = [0, 2]\nclass = woman", fillcolor="#399de5"] ;
804 -> 806 ;
807 [label="wp00tbgs <= 0.916\ngini = 0.48\nsamples = 411\nvalue = [164, 247]\nclass = woman", fillcolor="#bcdef6"] ;
759 -> 807 ;
808 [label="birthyr <= 1945.5\ngini = 0.499\nsamples = 167\nvalue = [88, 79]\nclass = man", fillcolor="#fcf2eb"] ;
807 -> 808 ;
809 [label="wp00tbgp <= 890.233\ngini = 0.471\nsamples = 79\nvalue = [49, 30]\nclass = man", fillcolor="#f5ceb2"] ;
808 -> 809 ;
810 [label="birthyr <= 1944.0\ngini = 0.298\nsamples = 22\nvalue = [18, 4]\nclass = man", fillcolor="#eb9d65"] ;
809 -> 810 ;
811 [label="wp00tbgp <= 869.487\ngini = 0.188\nsamples = 19\nvalue = [17, 2]\nclass = man", fillcolor="#e89050"] ;
810 -> 811 ;
812 [label="gini = 0.0\nsamples = 12\nvalue = [12, 0]\nclass = man", fillcolor="#e58139"] ;
811 -> 812 ;
813 [label="wp00tbgs <= 0.78\ngini = 0.408\nsamples = 7\nvalue = [5, 2]\nclass = man", fillcolor="#efb388"] ;
811 -> 813 ;
814 [label="birthyr <= 1941.5\ngini = 0.444\nsamples = 3\nvalue = [1, 2]\nclass = woman", fillcolor="#9ccef2"] ;
813 -> 814 ;
815 [label="gini = 0.0\nsamples = 2\nvalue = [0, 2]\nclass = woman", fillcolor="#399de5"] ;
814 -> 815 ;
816 [label="gini = 0.0\nsamples = 1\nvalue = [1, 0]\nclass = man", fillcolor="#e58139"] ;
814 -> 816 ;
817 [label="gini = 0.0\nsamples = 4\nvalue = [4, 0]\nclass = man", fillcolor="#e58139"] ;
813 -> 817 ;
818 [label="a22 <= 2.0\ngini = 0.444\nsamples = 3\nvalue = [1, 2]\nclass = woman", fillcolor="#9ccef2"] ;
810 -> 818 ;
819 [label="gini = 0.0\nsamples = 2\nvalue = [0, 2]\nclass = woman", fillcolor="#399de5"] ;
818 -> 819 ;
820 [label="gini = 0.0\nsamples = 1\nvalue = [1, 0]\nclass = man", fillcolor="#e58139"] ;
818 -> 820 ;
821 [label="birthyr <= 1926.5\ngini = 0.496\nsamples = 57\nvalue = [31, 26]\nclass = man", fillcolor="#fbebdf"] ;
809 -> 821 ;
822 [label="gini = 0.0\nsamples = 3\nvalue = [0, 3]\nclass = woman", fillcolor="#399de5"] ;
821 -> 822 ;
823 [label="a23 <= 2.5\ngini = 0.489\nsamples = 54\nvalue = [31, 23]\nclass = man", fillcolor="#f8decc"] ;
821 -> 823 ;
824 [label="wp00tbgp <= 990.103\ngini = 0.386\nsamples = 23\nvalue = [17, 6]\nclass = man", fillcolor="#eead7f"] ;
823 -> 824 ;
825 [label="a29 <= 2.5\ngini = 0.48\nsamples = 15\nvalue = [9, 6]\nclass = man", fillcolor="#f6d5bd"] ;
824 -> 825 ;
826 [label="gini = 0.0\nsamples = 2\nvalue = [0, 2]\nclass = woman", fillcolor="#399de5"] ;
825 -> 826 ;
827 [label="wp00tbgs <= 0.874\ngini = 0.426\nsamples = 13\nvalue = [9, 4]\nclass = man", fillcolor="#f1b991"] ;
825 -> 827 ;
828 [label="a22 <= 0.5\ngini = 0.298\nsamples = 11\nvalue = [9, 2]\nclass = man", fillcolor="#eb9d65"] ;
827 -> 828 ;
829 [label="birthyr <= 1928.5\ngini = 0.48\nsamples = 5\nvalue = [3, 2]\nclass = man", fillcolor="#f6d5bd"] ;
828 -> 829 ;
830 [label="gini = 0.0\nsamples = 2\nvalue = [2, 0]\nclass = man", fillcolor="#e58139"] ;
829 -> 830 ;
831 [label="wp00tbgp <= 911.17\ngini = 0.444\nsamples = 3\nvalue = [1, 2]\nclass = woman", fillcolor="#9ccef2"] ;
829 -> 831 ;
832 [label="gini = 0.0\nsamples = 1\nvalue = [0, 1]\nclass = woman", fillcolor="#399de5"] ;
831 -> 832 ;
833 [label="wp00tbgs <= 0.835\ngini = 0.5\nsamples = 2\nvalue = [1, 1]\nclass = man", fillcolor="#ffffff"] ;
831 -> 833 ;
834 [label="gini = 0.0\nsamples = 1\nvalue = [1, 0]\nclass = man", fillcolor="#e58139"] ;
833 -> 834 ;
835 [label="gini = 0.0\nsamples = 1\nvalue = [0, 1]\nclass = woman", fillcolor="#399de5"] ;
833 -> 835 ;
836 [label="gini = 0.0\nsamples = 6\nvalue = [6, 0]\nclass = man", fillcolor="#e58139"] ;
828 -> 836 ;
837 [label="gini = 0.0\nsamples = 2\nvalue = [0, 2]\nclass = woman", fillcolor="#399de5"] ;
827 -> 837 ;
838 [label="gini = 0.0\nsamples = 8\nvalue = [8, 0]\nclass = man", fillcolor="#e58139"] ;
824 -> 838 ;
839 [label="birthyr <= 1932.5\ngini = 0.495\nsamples = 31\nvalue = [14, 17]\nclass = woman", fillcolor="#dceefa"] ;
823 -> 839 ;
840 [label="gini = 0.0\nsamples = 4\nvalue = [4, 0]\nclass = man", fillcolor="#e58139"] ;
839 -> 840 ;
841 [label="wp00tbgs <= 0.808\ngini = 0.466\nsamples = 27\nvalue = [10, 17]\nclass = woman", fillcolor="#add7f4"] ;
839 -> 841 ;
842 [label="gini = 0.0\nsamples = 3\nvalue = [3, 0]\nclass = man", fillcolor="#e58139"] ;
841 -> 842 ;
843 [label="a17 <= 0.5\ngini = 0.413\nsamples = 24\nvalue = [7, 17]\nclass = woman", fillcolor="#8bc5f0"] ;
841 -> 843 ;
844 [label="a22 <= 2.5\ngini = 0.351\nsamples = 22\nvalue = [5, 17]\nclass = woman", fillcolor="#73baed"] ;
843 -> 844 ;
845 [label="gini = 0.0\nsamples = 10\nvalue = [0, 10]\nclass = woman", fillcolor="#399de5"] ;
844 -> 845 ;
846 [label="a19 <= 0.5\ngini = 0.486\nsamples = 12\nvalue = [5, 7]\nclass = woman", fillcolor="#c6e3f8"] ;
844 -> 846 ;
847 [label="wp00tbgs <= 0.869\ngini = 0.469\nsamples = 8\nvalue = [5, 3]\nclass = man", fillcolor="#f5cdb0"] ;
846 -> 847 ;
848 [label="wp00tbgs <= 0.848\ngini = 0.48\nsamples = 5\nvalue = [2, 3]\nclass = woman", fillcolor="#bddef6"] ;
847 -> 848 ;
849 [label="a30 <= 6.5\ngini = 0.444\nsamples = 3\nvalue = [2, 1]\nclass = man", fillcolor="#f2c09c"] ;
848 -> 849 ;
850 [label="gini = 0.0\nsamples = 2\nvalue = [2, 0]\nclass = man", fillcolor="#e58139"] ;
849 -> 850 ;
851 [label="gini = 0.0\nsamples = 1\nvalue = [0, 1]\nclass = woman", fillcolor="#399de5"] ;
849 -> 851 ;
852 [label="gini = 0.0\nsamples = 2\nvalue = [0, 2]\nclass = woman", fillcolor="#399de5"] ;
848 -> 852 ;
853 [label="gini = 0.0\nsamples = 3\nvalue = [3, 0]\nclass = man", fillcolor="#e58139"] ;
847 -> 853 ;
854 [label="gini = 0.0\nsamples = 4\nvalue = [0, 4]\nclass = woman", fillcolor="#399de5"] ;
846 -> 854 ;
855 [label="gini = 0.0\nsamples = 2\nvalue = [2, 0]\nclass = man", fillcolor="#e58139"] ;
843 -> 855 ;
856 [label="a22 <= 0.5\ngini = 0.494\nsamples = 88\nvalue = [39, 49]\nclass = woman", fillcolor="#d7ebfa"] ;
808 -> 856 ;
857 [label="birthyr <= 1948.5\ngini = 0.477\nsamples = 28\nvalue = [17, 11]\nclass = man", fillcolor="#f6d3b9"] ;
856 -> 857 ;
858 [label="a25 <= 4.5\ngini = 0.219\nsamples = 8\nvalue = [7, 1]\nclass = man", fillcolor="#e99355"] ;
857 -> 858 ;
859 [label="gini = 0.0\nsamples = 6\nvalue = [6, 0]\nclass = man", fillcolor="#e58139"] ;
858 -> 859 ;
860 [label="a24 <= 4.5\ngini = 0.5\nsamples = 2\nvalue = [1, 1]\nclass = man", fillcolor="#ffffff"] ;
858 -> 860 ;
861 [label="gini = 0.0\nsamples = 1\nvalue = [0, 1]\nclass = woman", fillcolor="#399de5"] ;
860 -> 861 ;
862 [label="gini = 0.0\nsamples = 1\nvalue = [1, 0]\nclass = man", fillcolor="#e58139"] ;
860 -> 862 ;
863 [label="wp00tbgp <= 942.959\ngini = 0.5\nsamples = 20\nvalue = [10, 10]\nclass = man", fillcolor="#ffffff"] ;
857 -> 863 ;
864 [label="wp00tbgp <= 880.64\ngini = 0.484\nsamples = 17\nvalue = [7, 10]\nclass = woman", fillcolor="#c4e2f7"] ;
863 -> 864 ;
865 [label="wp00tbgs <= 0.752\ngini = 0.48\nsamples = 10\nvalue = [6, 4]\nclass = man", fillcolor="#f6d5bd"] ;
864 -> 865 ;
866 [label="wp00tbgp <= 782.841\ngini = 0.49\nsamples = 7\nvalue = [3, 4]\nclass = woman", fillcolor="#cee6f8"] ;
865 -> 866 ;
867 [label="a28 <= 4.5\ngini = 0.375\nsamples = 4\nvalue = [3, 1]\nclass = man", fillcolor="#eeab7b"] ;
866 -> 867 ;
868 [label="gini = 0.0\nsamples = 2\nvalue = [2, 0]\nclass = man", fillcolor="#e58139"] ;
867 -> 868 ;
869 [label="wp00tbgp <= 771.13\ngini = 0.5\nsamples = 2\nvalue = [1, 1]\nclass = man", fillcolor="#ffffff"] ;
867 -> 869 ;
870 [label="gini = 0.0\nsamples = 1\nvalue = [0, 1]\nclass = woman", fillcolor="#399de5"] ;
869 -> 870 ;
871 [label="gini = 0.0\nsamples = 1\nvalue = [1, 0]\nclass = man", fillcolor="#e58139"] ;
869 -> 871 ;
872 [label="gini = 0.0\nsamples = 3\nvalue = [0, 3]\nclass = woman", fillcolor="#399de5"] ;
866 -> 872 ;
873 [label="gini = 0.0\nsamples = 3\nvalue = [3, 0]\nclass = man", fillcolor="#e58139"] ;
865 -> 873 ;
874 [label="a28 <= 2.5\ngini = 0.245\nsamples = 7\nvalue = [1, 6]\nclass = woman", fillcolor="#5aade9"] ;
864 -> 874 ;
875 [label="gini = 0.0\nsamples = 1\nvalue = [1, 0]\nclass = man", fillcolor="#e58139"] ;
874 -> 875 ;
876 [label="gini = 0.0\nsamples = 6\nvalue = [0, 6]\nclass = woman", fillcolor="#399de5"] ;
874 -> 876 ;
877 [label="gini = 0.0\nsamples = 3\nvalue = [3, 0]\nclass = man", fillcolor="#e58139"] ;
863 -> 877 ;
